-7.153352722525596619e-03,1.367586106061935425e-02,2.159960195422172546e-02,6.953835487365722656e-03,2.223454415798187256e-02,-2.927642315626144409e-02,2.524642273783683777e-02,1.970361545681953430e-02,-2.285471186041831970e-02,-1.448817551136016846e-03
-4.052184522151947021e-04,1.906578615307807922e-02,-1.488089561462402344e-03,-2.101498097181320190e-02,8.329015225172042847e-03,-1.546450145542621613e-02,2.751807495951652527e-02,-1.590058207511901855e-03,-2.371124178171157837e-02,-1.988707482814788818e-02
2.428032830357551575e-02,1.684148237109184265e-02,-2.068550325930118561e-02,1.918323338031768799e-02,-2.353622391819953918e-02,-3.138002380728721619e-02,1.183513924479484558e-02,3.740821033716201782e-03,2.146624028682708740e-02,7.500562816858291626e-03
-2.050892263650894165e-02,8.471608161926269531e-04,3.036335483193397522e-02,-6.455788388848304749e-03,-3.198953345417976379e-02,-2.373532950878143311e-02,1.659368723630905151e-02,-1.893647573888301849e-02,-1.596736349165439606e-02,6.113234907388687134e-03
3.149695321917533875e-02,2.940519526600837708e-02,-3.550276160240173340e-04,-4.048662260174751282e-03,-9.845942258834838867e-04,-6.487827748060226440e-03,1.566853374242782593e-02,2.704602852463722229e-02,-5.531946197152137756e-03,3.065827861428260803e-02
9.007647633552551270e-03,-4.598509520292282104e-03,-2.480136230587959290e-03,1.480264961719512939e-02,-1.672414690256118774e-02,-3.236869722604751587e-02,9.915538132190704346e-03,2.737525850534439087e-03,3.126880899071693420e-02,-2.186142839491367340e-02
7.510252296924591064e-03,2.710469067096710205e-02,-3.076430037617683411e-02,-1.101992838084697723e-02,8.517991751432418823e-03,2.980333194136619568e-02,1.867491379380226135e-02,1.659977063536643982e-02,-2.602961659431457520e-02,1.070861145853996277e-02
-1.745427213609218597e-02,2.712508291006088257e-02,8.632343262434005737e-03,1.904416829347610474e-03,1.604300737380981445e-02,-2.553638070821762085e-02,2.066358923912048340e-03,-2.548887953162193298e-02,7.217895239591598511e-03,-3.232102841138839722e-02
5.149692296981811523e-04,-3.187941014766693115e-02,-1.011911034584045410e-02,-8.855750784277915955e-03,-2.309860289096832275e-02,-2.778319828212261200e-02,-1.924844458699226379e-02,-1.200535707175731659e-02,-3.189881518483161926e-02,2.525503933429718018e-02
-2.646552398800849915e-02,3.031105920672416687e-02,-3.231691941618919373e-02,-1.088109798729419708e-02,2.182643860578536987e-02,-9.200161322951316833e-03,1.689903810620307922e-02,1.671805977821350098e-02,3.806203603744506836e-04,2.422421053051948547e-02
8.285418152809143066e-05,-2.157764136791229248e-02,-3.001071326434612274e-02,-2.469799295067787170e-02,1.707245409488677979e-02,4.204630851745605469e-03,1.394362747669219971e-02,5.511548370122909546e-03,-1.932426914572715759e-02,1.191910356283187866e-03
2.568271756172180176e-02,-1.500456407666206360e-02,1.272574812173843384e-02,2.100539579987525940e-02,2.627890557050704956e-03,-1.943698897957801819e-02,-1.070239208638668060e-02,-2.167057432234287262e-02,-2.381426468491554260e-02,-4.331059753894805908e-03
-2.112041041254997253e-02,2.720385417342185974e-02,-2.086628973484039307e-02,1.791234686970710754e-02,-2.264592424035072327e-02,1.124485209584236145e-02,-3.748968243598937988e-03,-1.384202390909194946e-02,9.190149605274200439e-03,-6.441317498683929443e-03
-7.220642641186714172e-03,-1.213810965418815613e-02,1.978306472301483154e-02,1.747421920299530029e-02,-2.144464291632175446e-02,-2.218386158347129822e-02,8.341114968061447144e-03,2.103584632277488708e-02,1.997580006718635559e-02,-2.925956994295120239e-02
-8.283324539661407471e-03,-1.015907339751720428e-02,2.331334725022315979e-02,8.551899343729019165e-03,2.851277589797973633e-02,2.969300374388694763e-02,-7.673192769289016724e-03,-1.942471414804458618e-02,-3.194706514477729797e-02,1.319033280014991760e-02
-1.327398233115673065e-02,2.120818942785263062e-03,-3.237454220652580261e-02,4.721172153949737549e-04,2.151583507657051086e-02,3.267760947346687317e-02,2.397390827536582947e-02,6.076954305171966553e-03,1.085475087165832520e-04,-9.786712005734443665e-03
-2.398618869483470917e-02,-2.034992352128028870e-02,-8.750110864639282227e-04,2.291082218289375305e-02,1.789753139019012451e-02,-1.794287562370300293e-02,6.642565131187438965e-05,-2.464563772082328796e-02,-1.824119687080383301e-02,8.938852697610855103e-03
2.579643577337265015e-02,-5.979260429739952087e-03,-5.076093599200248718e-03,3.270654752850532532e-02,-7.017744705080986023e-03,1.160796359181404114e-02,-2.520203590393066406e-03,-7.738618180155754089e-03,9.277820587158203125e-03,-9.025111794471740723e-03
-2.942828834056854248e-02,-2.297063544392585754e-02,-6.824960932135581970e-03,-1.038937643170356750e-02,2.854952588677406311e-02,-1.330990344285964966e-03,7.758755236864089966e-03,-8.392902091145515442e-03,-4.987215623259544373e-03,-3.175809979438781738e-02
-1.892605796456336975e-02,-6.291545927524566650e-03,2.397042512893676758e-02,-2.253505587577819824e-02,-5.782566964626312256e-03,3.197015449404716492e-02,2.242239937186241150e-02,3.263295814394950867e-02,-1.516522094607353210e-02,-2.672538161277770996e-03
-2.653781138360500336e-02,-1.280911825597286224e-02,2.916150540113449097e-02,9.908128529787063599e-03,-2.012223005294799805e-03,-8.674783632159233093e-03,6.376955658197402954e-03,-1.169718056917190552e-02,-8.060114458203315735e-03,2.916321158409118652e-02
-9.495539590716362000e-03,-3.155115246772766113e-02,3.260799124836921692e-02,-2.530494332313537598e-02,-9.598460048437118530e-03,-2.771280705928802490e-04,1.000039279460906982e-02,-1.767319813370704651e-02,1.880445331335067749e-02,-1.558091118931770325e-02
2.244301140308380127e-04,-1.663481816649436951e-02,-1.550366356968879700e-02,3.014500066637992859e-02,-1.229414902627468109e-02,-5.802633240818977356e-03,-2.835762500762939453e-02,-2.744116820394992828e-02,3.735877573490142822e-03,-2.973625063896179199e-02
-1.458083651959896088e-02,1.606395095586776733e-02,2.101536840200424194e-02,2.023329213261604309e-02,-3.188033774495124817e-02,3.068965300917625427e-02,1.263003051280975342e-02,1.613960415124893188e-02,-1.397218182682991028e-02,-1.587343961000442505e-02
2.270523086190223694e-02,-2.788089029490947723e-02,-1.690042577683925629e-02,-2.433117851614952087e-02,-1.495179347693920135e-02,7.507182657718658447e-03,2.851960062980651855e-02,-1.994473859667778015e-02,1.403966173529624939e-02,-9.167702868580818176e-03
-5.574306473135948181e-03,-1.019449159502983093e-02,-2.860511280596256256e-02,2.209228649735450745e-02,-1.433513313531875610e-02,1.687456294894218445e-02,1.808336377143859863e-02,2.849121019244194031e-02,1.243855059146881104e-02,-2.641399949789047241e-02
7.250163704156875610e-03,-1.361371204257011414e-02,-1.845617964863777161e-02,-3.320463746786117554e-02,-6.559725850820541382e-03,-2.893497236073017120e-02,2.713823691010475159e-02,-1.659965328872203827e-02,-2.455361932516098022e-02,-3.084761649370193481e-02
-4.415510222315788269e-03,2.689360827207565308e-02,-1.621091552078723907e-02,3.320570662617683411e-02,-1.209001243114471436e-02,3.256973996758460999e-02,1.583371311426162720e-03,2.119483798742294312e-02,1.889717206358909607e-02,-1.592574827373027802e-02
-3.152598813176155090e-02,-3.171441331505775452e-02,-1.669891737401485443e-02,2.357420325279235840e-02,-1.137892901897430420e-02,1.820778846740722656e-02,-2.409890852868556976e-02,-2.649782225489616394e-02,-1.716025918722152710e-02,1.407976076006889343e-02
-2.788170799612998962e-02,2.173085883259773254e-02,-2.881307154893875122e-03,-3.925787284970283508e-03,-3.918273374438285828e-03,-2.211477980017662048e-02,2.729834616184234619e-02,-1.218911819159984589e-02,-2.065019682049751282e-02,1.853870972990989685e-02
-5.237312987446784973e-03,3.254367038607597351e-02,-1.933606714010238647e-02,-6.472719833254814148e-03,-1.968929171562194824e-02,2.917334437370300293e-02,-2.944185584783554077e-02,5.649052560329437256e-03,4.012595862150192261e-03,-3.021951392292976379e-02
-2.664220705628395081e-02,-1.604514010250568390e-02,-7.004342973232269287e-03,-2.261273749172687531e-02,-3.705013543367385864e-03,-1.991029642522335052e-02,-1.488094963133335114e-02,-1.134822517633438110e-02,8.533541113138198853e-03,-3.238711878657341003e-02
1.994947344064712524e-02,-2.950171940028667450e-02,2.693448960781097412e-02,8.726123720407485962e-03,-1.263279095292091370e-02,-6.771255284547805786e-03,-1.405376009643077850e-02,-2.976031973958015442e-03,2.926913276314735413e-02,1.108986884355545044e-02
3.005537763237953186e-02,1.810881122946739197e-02,2.782198786735534668e-02,-2.466227486729621887e-02,-6.430938839912414551e-03,2.276786416769027710e-02,1.198104023933410645e-02,1.032323017716407776e-02,1.205935701727867126e-02,5.996271967887878418e-03
3.290050104260444641e-02,1.077900081872940063e-02,1.615846157073974609e-02,-5.400851368904113770e-03,8.881647139787673950e-03,-2.130311541259288788e-02,-1.194919832050800323e-02,2.029290050268173218e-02,-3.052001819014549255e-02,1.376459375023841858e-02
-1.939600147306919098e-02,2.823185548186302185e-02,-2.145462483167648315e-02,2.576091513037681580e-02,3.241173923015594482e-03,-3.132969141006469727e-06,2.699711546301841736e-02,1.579878106713294983e-02,2.814671397209167480e-02,2.044708281755447388e-02
-1.619132608175277710e-02,2.224500104784965515e-02,2.371783554553985596e-02,3.199733421206474304e-02,2.739001065492630005e-02,-2.038588747382164001e-03,-1.600581966340541840e-02,-2.432757616043090820e-02,-1.404728740453720093e-03,-1.919812709093093872e-02
-3.313899040222167969e-02,-1.300274021923542023e-02,1.114223897457122803e-02,-7.704192772507667542e-03,1.843998581171035767e-02,2.827797457575798035e-02,1.269809529185295105e-02,-1.353708468377590179e-02,2.657408639788627625e-02,3.263772651553153992e-02
-2.957985363900661469e-02,3.069316223263740540e-02,4.359900951385498047e-03,6.998155266046524048e-03,3.090688213706016541e-02,-6.285872310400009155e-03,-3.004017286002635956e-02,-1.301108859479427338e-02,-2.232572995126247406e-02,-3.209851682186126709e-02
-2.972736395895481110e-02,-2.629324235022068024e-02,-1.822524890303611755e-02,-8.630400523543357849e-03,1.821107789874076843e-02,6.165307015180587769e-03,2.329545468091964722e-02,1.970030367374420166e-02,-3.021110408008098602e-02,1.169619709253311157e-02
4.294928163290023804e-03,-1.172168925404548645e-02,3.180128708481788635e-02,-1.371010392904281616e-02,2.342040091753005981e-02,1.726249605417251587e-02,-1.034706458449363708e-02,-6.258817389607429504e-03,-3.237122669816017151e-02,2.791221439838409424e-02
5.036722868680953979e-03,5.067326128482818604e-04,3.162261471152305603e-02,-4.848290234804153442e-03,2.977475896477699280e-02,5.876395851373672485e-03,-8.772777393460273743e-03,1.601243764162063599e-02,2.864829823374748230e-02,3.254453465342521667e-02
1.755782589316368103e-02,-2.764522470533847809e-02,1.059380546212196350e-02,-2.125044912099838257e-02,-1.628751121461391449e-02,-1.948614791035652161e-02,-5.264520645141601562e-03,1.190653070807456970e-02,-1.146763190627098083e-02,5.758199840784072876e-03
4.782851785421371460e-03,-1.084525138139724731e-03,3.104075416922569275e-02,-3.615962341427803040e-03,1.593629270792007446e-02,3.010536357760429382e-02,-1.672451198101043701e-02,-1.224122010171413422e-02,-9.841425344347953796e-03,-1.571583002805709839e-02
2.553449198603630066e-02,-7.960842922329902649e-03,2.709876745939254761e-03,3.546159714460372925e-03,2.899481728672981262e-02,3.189324960112571716e-02,-2.029038593173027039e-02,2.297798171639442444e-02,-2.410219982266426086e-03,-2.820099890232086182e-02
-1.022941805422306061e-02,-2.363889850676059723e-02,-2.722943946719169617e-02,1.155443117022514343e-02,1.246627792716026306e-02,-8.695784956216812134e-03,1.109089702367782593e-03,-1.691254228353500366e-02,2.148188650608062744e-02,2.153598889708518982e-02
-2.887188829481601715e-02,-2.369614318013191223e-03,7.870737463235855103e-03,-3.190997242927551270e-02,5.448464304208755493e-03,-2.233149856328964233e-02,-3.155689686536788940e-02,6.451029330492019653e-03,1.108810678124427795e-02,-2.425399608910083771e-02
-1.632379367947578430e-02,-2.289462834596633911e-02,1.685532182455062866e-02,-3.024893440306186676e-02,-3.320695832371711731e-03,8.389387279748916626e-03,1.221910119056701660e-02,2.392180263996124268e-02,-4.502387717366218567e-03,-1.685709878802299500e-02
-2.900257892906665802e-02,-2.507955208420753479e-02,-2.388894185423851013e-02,-1.851896196603775024e-02,-3.181092441082000732e-02,-2.320319414138793945e-03,2.187590673565864563e-02,-5.349703133106231689e-04,6.980478763580322266e-03,-2.088398858904838562e-02
-2.225441858172416687e-02,1.171843707561492920e-02,1.762166619300842285e-02,-2.246706001460552216e-02,1.571934297680854797e-02,-2.158506959676742554e-02,-2.404305338859558105e-02,2.048469334840774536e-02,-1.970923878252506256e-02,-8.249985054135322571e-03
-2.783987112343311310e-02,-1.868609338998794556e-02,-1.288999058306217194e-02,1.795168220996856689e-02,-2.735249698162078857e-02,1.250844821333885193e-02,2.258824557065963745e-02,-2.129060402512550354e-02,2.867956832051277161e-02,-1.879688352346420288e-02
7.788207381963729858e-03,-1.179858669638633728e-02,2.675211802124977112e-02,6.590738892555236816e-03,-2.661236748099327087e-02,-1.262351870536804199e-03,-1.645734719932079315e-02,1.261843740940093994e-02,1.880700886249542236e-02,2.444203197956085205e-02
8.901156485080718994e-03,2.108911797404289246e-02,9.270530194044113159e-03,2.735915407538414001e-02,2.391887456178665161e-02,-1.934811472892761230e-03,1.327224448323249817e-02,2.081368491053581238e-02,-2.584085054695606232e-02,-1.551135256886482239e-02
-1.970568485558032990e-02,1.255252957344055176e-02,-3.944495692849159241e-03,-9.973391890525817871e-03,1.362741366028785706e-02,2.309980243444442749e-02,1.615617051720619202e-02,9.373608976602554321e-03,7.392708212137222290e-03,-2.055067569017410278e-03
2.105005085468292236e-02,-2.263422310352325439e-02,-3.148557618260383606e-03,8.002720773220062256e-03,3.141446784138679504e-02,1.791764423251152039e-02,5.923364311456680298e-03,-3.268199041485786438e-02,2.702276408672332764e-02,-2.523778006434440613e-02
4.395969212055206299e-03,-7.109994068741798401e-03,2.843207120895385742e-02,-2.232877537608146667e-02,2.383014187216758728e-02,1.531526818871498108e-02,1.022020727396011353e-02,1.209384575486183167e-02,-5.883052945137023926e-04,-2.010975778102874756e-02
1.429961994290351868e-02,4.453808069229125977e-04,1.481242477893829346e-02,-7.874576374888420105e-03,1.230902597308158875e-02,2.659517526626586914e-02,-3.224955126643180847e-02,2.163146808743476868e-02,1.710324361920356750e-02,2.319601923227310181e-02
6.668500602245330811e-03,3.000287339091300964e-02,8.946660906076431274e-03,2.706220373511314392e-02,-1.901041343808174133e-02,-1.927338540554046631e-03,2.684195712208747864e-02,1.124871522188186646e-02,-1.201120391488075256e-02,-1.446408592164516449e-02
-2.386151999235153198e-02,-1.758641377091407776e-02,2.361814305186271667e-02,1.221372187137603760e-02,-2.662303112447261810e-02,-3.272170573472976685e-02,-1.260026171803474426e-02,6.409477442502975464e-03,-4.996260628104209900e-03,-2.787590026855468750e-03
1.548200845718383789e-03,-4.212897270917892456e-03,8.845381438732147217e-03,6.624396890401840210e-03,-2.178261801600456238e-02,9.305968880653381348e-03,3.077002242207527161e-02,-2.231347188353538513e-02,-1.521958410739898682e-02,-5.921049043536186218e-03
-1.029238104820251465e-03,1.687445864081382751e-02,1.191126555204391479e-02,1.672604307532310486e-02,-2.977197989821434021e-03,-3.009179607033729553e-03,4.409987479448318481e-03,1.023209095001220703e-02,9.174067527055740356e-03,-1.305508986115455627e-02
1.973334327340126038e-02,1.298769935965538025e-02,-2.213695459067821503e-02,-5.074705928564071655e-03,2.168149128556251526e-02,-1.626385189592838287e-02,-7.897291332483291626e-03,9.776342660188674927e-03,-2.530835568904876709e-02,2.535151690244674683e-02
1.313124969601631165e-02,-3.296408802270889282e-03,3.144941851496696472e-02,-2.643241360783576965e-02,-3.838028758764266968e-03,3.180294856429100037e-02,1.210616528987884521e-02,-5.696475505828857422e-03,-2.823997847735881805e-02,2.397969365119934082e-03
-1.186115480959415436e-02,-3.123660013079643250e-02,2.460589632391929626e-02,2.406302094459533691e-02,-3.266562148928642273e-02,1.961676776409149170e-02,-1.706267893314361572e-02,3.079073503613471985e-02,7.426172494888305664e-03,-1.093633472919464111e-03
-3.496665507555007935e-03,-2.591455727815628052e-02,5.372755229473114014e-03,-3.114347718656063080e-02,-5.176983773708343506e-03,-1.252268999814987183e-02,-3.038602694869041443e-02,1.071401312947273254e-02,1.825067773461341858e-02,2.374412864446640015e-02
-2.581492066383361816e-02,3.136028721928596497e-02,-2.075853571295738220e-02,-1.351824961602687836e-02,1.890651881694793701e-03,-1.438223756849765778e-02,-2.890916168689727783e-02,-6.713757291436195374e-03,2.574173733592033386e-02,-3.000752441585063934e-02
4.114735871553421021e-03,3.242835029959678650e-02,-7.855605334043502808e-03,-2.021336182951927185e-02,-4.535449668765068054e-03,2.430570125579833984e-02,-4.058398306369781494e-03,-1.816985383629798889e-02,2.969770506024360657e-02,3.243308141827583313e-02
-2.390434965491294861e-02,-2.673073485493659973e-02,2.857898548245429993e-02,-2.943941205739974976e-02,2.261504530906677246e-03,-3.229161724448204041e-02,1.676197722554206848e-02,-2.133550867438316345e-02,-2.520612441003322601e-02,5.447305738925933838e-03
2.528556808829307556e-02,-5.461245775222778320e-03,2.024490386247634888e-03,3.109584376215934753e-02,2.324226498603820801e-02,1.822906732559204102e-02,-1.346934400498867035e-02,-1.459706947207450867e-02,1.802027225494384766e-02,-4.230290651321411133e-04
-1.408557593822479248e-02,1.313187554478645325e-02,-2.637260779738426208e-02,-2.072283998131752014e-02,-2.688302285969257355e-02,5.176056176424026489e-03,1.002363860607147217e-02,-1.200407184660434723e-02,-5.128545686602592468e-03,7.019363343715667725e-03
3.862641751766204834e-03,2.761081606149673462e-02,-2.191689610481262207e-02,3.117877617478370667e-02,-4.464240744709968567e-03,2.053321525454521179e-02,-9.017853066325187683e-03,-2.125292457640171051e-02,-3.227613121271133423e-02,2.389770746231079102e-02
1.835760474205017090e-02,-1.968236640095710754e-02,3.203692659735679626e-02,-1.776681095361709595e-02,3.197442367672920227e-02,2.155342698097229004e-02,8.849870413541793823e-03,2.007145434617996216e-03,-1.214574277400970459e-02,3.904856741428375244e-03
1.569672301411628723e-02,-2.902261912822723389e-02,-2.831620909273624420e-02,-6.404884159564971924e-03,1.118532940745353699e-02,-3.249749913811683655e-02,-1.797876879572868347e-02,6.619658321142196655e-03,-2.799293585121631622e-02,-1.088786683976650238e-02
-1.147836446762084961e-04,3.758799284696578979e-03,2.619720995426177979e-02,1.531882584095001221e-02,2.333804592490196228e-02,-3.128894045948982239e-02,-3.056784346699714661e-02,6.831374019384384155e-03,-8.539952337741851807e-03,1.994355767965316772e-02
-2.560365200042724609e-02,-2.025466784834861755e-02,-1.709613576531410217e-02,-5.762612447142601013e-03,4.882272332906723022e-03,1.599011942744255066e-02,-1.738797500729560852e-02,-1.223876141011714935e-02,-1.457238569855690002e-02,4.405714571475982666e-04
-1.212042383849620819e-02,5.155816674232482910e-03,-1.978933811187744141e-03,1.508996635675430298e-02,2.345968410372734070e-02,1.692789420485496521e-02,-1.127703301608562469e-02,2.207604423165321350e-02,-2.924502827227115631e-02,7.984977215528488159e-03
3.292197361588478088e-02,1.374579221010208130e-02,5.858037620782852173e-03,-1.929107308387756348e-02,8.530542254447937012e-05,-1.069738529622554779e-02,-2.969935722649097443e-02,-1.708073541522026062e-02,-8.414497599005699158e-03,1.679443567991256714e-02
1.688554883003234863e-02,4.503913223743438721e-03,9.339395910501480103e-03,1.626117900013923645e-02,-1.175376772880554199e-02,1.900846883654594421e-02,3.105250373482704163e-02,-1.065962575376033783e-02,1.958022266626358032e-02,-6.205771118402481079e-03
-3.120529092848300934e-02,-1.500242203474044800e-02,1.987321302294731140e-02,2.828883007168769836e-02,-4.766171798110008240e-03,-3.047611005604267120e-02,-1.718047447502613068e-02,-9.122192859649658203e-03,2.846680581569671631e-04,-3.160456568002700806e-02
-3.831427544355392456e-03,2.895545959472656250e-02,-6.538510322570800781e-03,-3.172534704208374023e-02,-2.448773384094238281e-02,2.417844906449317932e-02,-2.988189645111560822e-02,-2.355050481855869293e-02,-5.577217787504196167e-03,1.060464978218078613e-02
1.001589000225067139e-03,2.308793365955352783e-02,1.331360638141632080e-02,-8.146762847900390625e-03,8.401881903409957886e-03,2.812981605529785156e-02,3.594744950532913208e-03,-3.247560188174247742e-02,1.511435583233833313e-02,-1.718026027083396912e-02
-9.148050099611282349e-03,2.775765955448150635e-03,2.262507379055023193e-02,-1.492175459861755371e-02,-2.672167494893074036e-02,1.367825642228126526e-02,8.598845452070236206e-03,1.743305474519729614e-03,3.184871748089790344e-02,-2.944014966487884521e-02
1.304735615849494934e-02,-1.877991296350955963e-02,1.969511806964874268e-02,-3.045322932302951813e-02,-3.458136692643165588e-03,2.703651413321495056e-02,-2.497248165309429169e-02,3.262542560696601868e-02,-1.670018583536148071e-02,-1.490823552012443542e-02
2.447069808840751648e-02,-3.300473839044570923e-02,-1.697423681616783142e-02,-2.435015700757503510e-02,9.451370686292648315e-03,-2.226864546537399292e-02,1.155455783009529114e-02,2.482538297772407532e-02,-2.194064110517501831e-02,3.121602162718772888e-02
-1.349660567939281464e-02,1.040875911712646484e-02,1.060669869184494019e-02,2.395015954971313477e-02,2.861526235938072205e-02,-1.346087828278541565e-02,2.717096731066703796e-02,-1.099786348640918732e-02,2.047643065452575684e-03,1.835397258400917053e-02
-1.273758709430694580e-03,1.673018559813499451e-02,3.160019591450691223e-02,1.144463196396827698e-02,1.174808666110038757e-02,6.857085973024368286e-03,-3.191872313618659973e-02,2.493954822421073914e-02,-1.454163342714309692e-03,3.010621294379234314e-02
-3.287102654576301575e-02,-1.318326592445373535e-02,7.983647286891937256e-03,-9.611582383513450623e-03,1.330017298460006714e-02,-1.915354467928409576e-02,1.895818486809730530e-02,-1.379301398992538452e-02,4.876405000686645508e-05,1.659317314624786377e-02
-6.279025226831436157e-03,-3.151136264204978943e-02,2.122013270854949951e-02,1.529286429286003113e-02,-1.192944310605525970e-02,3.951970487833023071e-03,-1.758126541972160339e-02,-2.686708234250545502e-02,-2.897530794143676758e-02,1.061618328094482422e-03
-1.234187185764312744e-02,2.256147563457489014e-03,-4.260208457708358765e-03,-2.365471795201301575e-03,4.733048379421234131e-03,2.382474765181541443e-02,7.594376802444458008e-03,3.161479905247688293e-02,-1.386562734842300415e-02,8.863169699907302856e-03
5.966622382402420044e-03,-2.780834957957267761e-02,-1.536803133785724640e-02,-3.132618963718414307e-03,4.415407776832580566e-03,-1.986064389348030090e-02,3.245994448661804199e-03,2.461915463209152222e-02,-2.243494242429733276e-02,-6.527520716190338135e-03
2.228659018874168396e-02,-1.356171257793903351e-02,-2.151739969849586487e-02,2.645379677414894104e-02,9.777102619409561157e-03,2.792285382747650146e-02,4.723995923995971680e-03,2.403929829597473145e-02,1.234505325555801392e-02,-2.656587399542331696e-02
9.295642375946044922e-04,-2.941672131419181824e-02,2.904532849788665771e-02,2.952023968100547791e-02,-1.143989525735378265e-02,2.208371087908744812e-02,2.273282781243324280e-02,-1.855306327342987061e-04,2.329823374748229980e-02,1.784054189920425415e-02
2.550454065203666687e-02,2.811597660183906555e-02,-1.464734040200710297e-02,2.770878374576568604e-02,1.629638299345970154e-02,-1.097257807850837708e-02,9.659297764301300049e-03,2.359294518828392029e-02,2.318628132343292236e-03,-6.142623722553253174e-03
2.078006789088249207e-02,1.097399741411209106e-02,2.367200702428817749e-02,-2.117827162146568298e-02,9.397536516189575195e-03,-3.085249476134777069e-02,4.600193351507186890e-03,-1.236838102340698242e-02,-2.588601037859916687e-02,-5.999282002449035645e-04
3.360427916049957275e-03,1.398532837629318237e-02,1.095193251967430115e-02,-3.113731183111667633e-02,-3.066948056221008301e-02,6.547592580318450928e-03,2.768218889832496643e-02,1.961987093091011047e-02,-8.602924644947052002e-03,3.006209805607795715e-02
-6.707981228828430176e-03,-1.774773001670837402e-03,6.139338016510009766e-03,1.819356158375740051e-02,2.423702552914619446e-02,2.687327936291694641e-02,-2.019364573061466217e-02,2.589249983429908752e-02,1.466318219900131226e-02,-3.064384683966636658e-03
-6.500774994492530823e-03,-3.232968598604202271e-02,4.357021301984786987e-03,2.281519770622253418e-02,-1.621976122260093689e-02,-1.638643257319927216e-02,2.679149433970451355e-02,-3.214738517999649048e-02,-1.905369386076927185e-02,-1.571519486606121063e-02
-1.029700785875320435e-02,2.271311730146408081e-02,2.311343327164649963e-02,9.827300906181335449e-03,2.423208206892013550e-02,-3.255825862288475037e-02,2.783033996820449829e-03,-1.728161051869392395e-02,2.039037272334098816e-02,1.226099207997322083e-02
-7.162095978856086731e-03,1.478417217731475830e-02,8.635398000478744507e-03,-3.613740205764770508e-03,4.718940705060958862e-03,1.849089190363883972e-02,3.157087787985801697e-02,-8.305769413709640503e-03,5.265034735202789307e-03,-1.684495061635971069e-02
-2.012734860181808472e-02,1.887385919690132141e-02,5.025085061788558960e-03,-2.290893346071243286e-02,2.314624935388565063e-02,-2.206497639417648315e-02,-1.721575856208801270e-03,-3.772938624024391174e-03,2.644249051809310913e-02,-1.846500858664512634e-02
-2.688245102763175964e-02,-3.938037902116775513e-03,1.859228685498237610e-02,1.855257153511047363e-02,-3.163838014006614685e-02,2.938594296574592590e-02,-2.534889057278633118e-02,1.663572341203689575e-02,1.228128746151924133e-02,-2.952110022306442261e-03
2.481387928128242493e-02,-3.114335052669048309e-02,-3.086133301258087158e-02,-9.373212233185768127e-03,7.854253053665161133e-04,2.367769554257392883e-02,2.121340483427047729e-02,-7.770424708724021912e-03,3.048312291502952576e-02,1.606243848800659180e-02
-2.062104642391204834e-03,1.475290954113006592e-02,3.223867341876029968e-02,1.675958931446075439e-02,1.970600336790084839e-03,2.801214531064033508e-02,2.382238209247589111e-02,-5.985496565699577332e-03,2.961954846978187561e-02,6.748169660568237305e-03
2.819488197565078735e-02,-1.593843102455139160e-03,4.512775689363479614e-03,-2.774117141962051392e-02,-1.959151402115821838e-02,-1.512662880122661591e-02,-1.092517189681529999e-02,2.134077250957489014e-03,5.860041826963424683e-03,-1.817362383008003235e-02
-2.924710698425769806e-02,1.640937849879264832e-02,1.197019964456558228e-02,2.456190809607505798e-02,-1.961376890540122986e-02,-4.262827336788177490e-03,-1.385451853275299072e-02,2.587575837969779968e-02,1.415815576910972595e-02,-1.356648840010166168e-02
-3.023389913141727448e-02,5.894515663385391235e-03,-2.162884175777435303e-02,9.602855890989303589e-03,1.508484780788421631e-02,2.612038329243659973e-02,-2.321302890777587891e-03,-7.055709138512611389e-03,-2.453442662954330444e-02,2.353238314390182495e-02
1.158977672457695007e-02,5.752131342887878418e-03,-2.629597298800945282e-02,2.477521821856498718e-02,2.277071401476860046e-02,1.882737502455711365e-02,-3.117211908102035522e-02,-3.240241482853889465e-02,-1.675727963447570801e-02,2.041753381490707397e-03
1.334426179528236389e-02,1.314281672239303589e-02,-1.681096106767654419e-02,-2.436364442110061646e-02,-1.712307147681713104e-02,-1.532836072146892548e-02,1.915240287780761719e-02,-4.211930558085441589e-03,-6.199795752763748169e-03,7.597357034683227539e-04
-1.385756582021713257e-02,4.118647426366806030e-03,-1.109239831566810608e-02,1.234911754727363586e-02,1.168918237090110779e-02,6.774097681045532227e-03,-1.195702143013477325e-02,-1.805664226412773132e-02,2.062037959694862366e-02,1.002240926027297974e-03
-3.273015841841697693e-02,2.208128571510314941e-04,2.023980766534805298e-02,-2.589258924126625061e-02,-1.952488347887992859e-02,-5.066230893135070801e-03,3.235914930701255798e-02,6.964061409235000610e-03,-2.906854264438152313e-02,2.665753662586212158e-02
-2.285477519035339355e-02,2.915598452091217041e-03,3.120196983218193054e-02,2.682503312826156616e-03,-1.613782718777656555e-02,3.096745535731315613e-02,-9.635798633098602295e-03,9.388856589794158936e-03,1.831211149692535400e-02,-1.949107646942138672e-02
1.027437299489974976e-02,-5.163114517927169800e-03,4.291437566280364990e-03,2.356420084834098816e-02,1.570279523730278015e-02,6.763502955436706543e-03,9.526528418064117432e-03,2.869953587651252747e-02,2.463283017277717590e-02,2.805510908365249634e-02
-2.011234685778617859e-02,-1.650136522948741913e-02,-1.947924494743347168e-03,-2.393022924661636353e-02,3.005300089716911316e-02,3.574244678020477295e-03,2.254251390695571899e-02,-2.336526848375797272e-02,2.496219053864479065e-02,-1.759954541921615601e-02
1.095915213227272034e-02,-1.223831623792648315e-02,-2.879006415605545044e-02,9.306523948907852173e-03,1.228789612650871277e-02,-2.032247930765151978e-02,1.248693838715553284e-02,-3.119921311736106873e-02,-2.330789715051651001e-02,1.838229596614837646e-03
-1.429130695760250092e-02,7.532164454460144043e-03,4.501421004533767700e-03,-1.407902687788009644e-03,4.414644092321395874e-03,1.772381737828254700e-02,-3.184169903397560120e-02,-2.249912172555923462e-02,3.746811300516128540e-03,-3.103785216808319092e-03
-1.039506494998931885e-02,-3.221928328275680542e-02,-2.414898015558719635e-02,1.378215104341506958e-02,-2.315080165863037109e-02,2.254901081323623657e-02,-1.517282053828239441e-02,-3.070251643657684326e-02,2.732455357909202576e-02,2.733524143695831299e-02
3.097853437066078186e-02,2.438520267605781555e-02,-1.783540099859237671e-02,2.885221317410469055e-02,-7.209368050098419189e-04,-3.056470304727554321e-02,2.756075188517570496e-02,8.669093251228332520e-03,-7.789181545376777649e-03,2.793533354997634888e-02
7.061865180730819702e-03,-1.031975448131561279e-02,2.823790907859802246e-02,-4.211477935314178467e-03,1.680277287960052490e-02,-2.595609053969383240e-03,-1.987060159444808960e-02,1.049900799989700317e-02,1.838539168238639832e-02,-8.244430646300315857e-03
2.378676459193229675e-02,2.166122198104858398e-03,-9.723532944917678833e-03,-3.319365158677101135e-02,1.339045539498329163e-02,-2.743184566497802734e-02,-2.210010960698127747e-02,2.742540091276168823e-03,-2.007207274436950684e-02,-1.111656613647937775e-02
-2.910300716757774353e-02,-2.035618387162685394e-02,2.817438170313835144e-02,-1.780970394611358643e-02,-1.988019421696662903e-02,2.135470137000083923e-02,2.487275749444961548e-03,2.844339236617088318e-02,-2.488623000681400299e-02,-1.454314216971397400e-02
6.028778851032257080e-03,1.900800317525863647e-02,-2.360819280147552490e-02,-2.195882797241210938e-02,-2.126976847648620605e-02,-1.044383645057678223e-02,-1.797008141875267029e-02,1.844117417931556702e-02,-1.144277490675449371e-02,1.304488629102706909e-02
-3.251330181956291199e-02,2.543967217206954956e-02,1.663222908973693848e-02,-1.153108105063438416e-02,-1.718383841216564178e-02,7.028438150882720947e-03,-1.570380106568336487e-02,2.090195938944816589e-02,-1.215320080518722534e-02,-1.863312348723411560e-02
-1.460193283855915070e-02,1.199697703123092651e-02,-2.252286672592163086e-02,2.830456197261810303e-02,-1.379251480102539062e-04,-6.447648629546165466e-03,2.086659148335456848e-02,-1.284763775765895844e-02,2.372860908508300781e-04,3.074526786804199219e-03
7.840991020202636719e-03,-5.621140822768211365e-03,-2.679182030260562897e-02,9.249139577150344849e-03,2.139936387538909912e-02,-1.182803884148597717e-02,-2.341886982321739197e-02,-2.762577123939990997e-02,1.884240284562110901e-02,3.262016922235488892e-03
-5.736358463764190674e-03,-1.697209477424621582e-02,2.681260928511619568e-02,2.502003684639930725e-02,-1.188655942678451538e-02,-2.718450129032135010e-02,-1.802697777748107910e-02,-2.770018391311168671e-02,-2.528466284275054932e-02,8.187703788280487061e-03
-2.713673003017902374e-02,9.534370154142379761e-03,2.539083734154701233e-02,-1.591069065034389496e-02,4.618067294359207153e-03,-2.813806571066379547e-02,-1.575030200183391571e-02,2.831334620714187622e-02,2.093998715281486511e-02,-3.699729219079017639e-03
-8.618483319878578186e-03,-2.224370837211608887e-02,-8.699346333742141724e-03,1.139310002326965332e-02,-1.935952156782150269e-02,2.027748525142669678e-02,1.537030935287475586e-02,9.364858269691467285e-03,1.397521421313285828e-02,5.449596792459487915e-03
1.825111359357833862e-02,-2.026351355016231537e-02,1.968193799257278442e-02,1.080157607793807983e-02,-2.078264020383358002e-02,-3.209475800395011902e-02,-1.717476360499858856e-02,-1.212061569094657898e-02,-1.806480810046195984e-02,2.930118516087532043e-02
2.296033874154090881e-02,-5.539054051041603088e-03,1.744104549288749695e-02,-1.371049135923385620e-02,1.487792655825614929e-02,1.997241377830505371e-02,-1.779003441333770752e-02,-1.348259299993515015e-02,1.450804993510246277e-02,1.712390407919883728e-02
6.430596113204956055e-05,2.674032002687454224e-02,2.203814312815666199e-02,-1.626572385430335999e-02,3.019768372178077698e-02,-1.054248772561550140e-02,2.053289115428924561e-02,1.795072481036186218e-02,1.504342630505561829e-02,7.232766598463058472e-03
-2.952456101775169373e-02,3.094062581658363342e-02,-9.675435721874237061e-04,-5.917977541685104370e-03,3.202717378735542297e-02,1.734189316630363464e-02,2.855312079191207886e-02,-5.079194903373718262e-03,1.932411268353462219e-02,7.486257702112197876e-03
5.510982125997543335e-03,-2.436178922653198242e-02,1.917038857936859131e-02,-2.859287895262241364e-02,1.013528928160667419e-02,-1.778917759656906128e-02,-3.155554831027984619e-02,3.105944022536277771e-02,3.107194229960441589e-02,1.092421263456344604e-02
1.670990511775016785e-02,-6.399448961019515991e-03,-7.606681436300277710e-03,-2.033896744251251221e-02,1.555668935179710388e-02,-1.205136626958847046e-02,-5.518821999430656433e-03,2.086869999766349792e-02,-9.711306542158126831e-03,-3.251865878701210022e-02
-2.911330573260784149e-02,2.913463488221168518e-02,1.520792022347450256e-02,-2.392826974391937256e-02,-4.146259278059005737e-03,-1.802489161491394043e-02,-2.736978232860565186e-03,-6.274836137890815735e-03,-7.205622270703315735e-03,3.812339156866073608e-03
-2.533354610204696655e-02,7.999792695045471191e-03,-9.918741881847381592e-03,-2.939875051379203796e-02,-1.658313535153865814e-02,-2.005511708557605743e-02,2.728756517171859741e-03,-3.142708912491798401e-02,-2.256336435675621033e-02,1.669390127062797546e-02
-4.459284245967864990e-04,-2.448832057416439056e-02,-1.950506493449211121e-02,-1.904127001762390137e-02,-1.210704818367958069e-02,5.207814276218414307e-03,7.563918828964233398e-03,2.722032368183135986e-02,1.062830910086631775e-02,-2.509048208594322205e-03
2.331780642271041870e-02,2.494072914123535156e-02,-1.121015660464763641e-02,2.839509770274162292e-02,2.954492345452308655e-02,-2.520123496651649475e-03,1.941299811005592346e-02,-2.930512093007564545e-02,-6.534827873110771179e-03,2.646182477474212646e-02
-2.273565158247947693e-03,-2.565601095557212830e-02,-2.229362912476062775e-02,-5.076937377452850342e-04,2.267839014530181885e-02,9.508907794952392578e-03,-1.543131284415721893e-02,3.173867985606193542e-02,1.627733930945396423e-02,-2.328038215637207031e-02
-9.072232991456985474e-03,2.729243040084838867e-02,2.992195263504981995e-02,-1.084671914577484131e-02,2.994408831000328064e-02,9.563170373439788818e-03,-2.943461760878562927e-03,-1.917287148535251617e-02,3.375343978404998779e-03,1.735135912895202637e-03
2.130002155900001526e-02,1.955879479646682739e-02,-2.331744134426116943e-02,2.404629066586494446e-02,-2.622556500136852264e-02,-1.989534124732017517e-02,-1.605808921158313751e-02,-1.027860864996910095e-02,-2.712663076817989349e-02,5.222294479608535767e-03
2.161610499024391174e-02,1.091110333800315857e-02,-2.022740617394447327e-02,5.290448665618896484e-03,8.708398789167404175e-03,-3.703482449054718018e-03,-1.222654245793819427e-02,-2.336264215409755707e-02,-3.548609092831611633e-03,3.188741579651832581e-02
-2.880272641777992249e-02,1.516373828053474426e-02,-5.630059167742729187e-03,1.223702356219291687e-02,2.180190011858940125e-02,1.827812939882278442e-02,-1.628858223557472229e-02,-3.300523757934570312e-02,-2.670619636774063110e-02,2.754198014736175537e-02
1.082241162657737732e-02,3.538407385349273682e-03,-1.608426310122013092e-02,-2.793492190539836884e-02,2.734642848372459412e-02,-2.473111823201179504e-02,2.352013438940048218e-02,-3.047860972583293915e-02,-2.011701092123985291e-02,-1.728549599647521973e-03
-1.065926067531108856e-02,2.486479282379150391e-02,-2.788830175995826721e-02,-5.176117643713951111e-03,-2.039621025323867798e-02,9.381853044033050537e-03,-4.596002399921417236e-03,-1.296137273311614990e-02,2.572346478700637817e-03,2.690146118402481079e-02
2.308888360857963562e-02,1.816599816083908081e-02,-9.931065142154693604e-04,-3.230866044759750366e-02,-2.266116812825202942e-02,-1.681758649647235870e-02,-2.131814137101173401e-03,-2.608665451407432556e-02,4.308290779590606689e-03,2.634458616375923157e-02
-1.066492684185504913e-02,9.384486824274063110e-03,-5.816349759697914124e-03,2.783091366291046143e-02,-8.533881977200508118e-03,3.064114600419998169e-03,2.830075472593307495e-02,1.853021979331970215e-02,3.114474192261695862e-02,-1.829013600945472717e-02
9.431146085262298584e-03,-3.309516236186027527e-02,-2.105484157800674438e-02,-2.303542569279670715e-02,-1.175622642040252686e-02,2.960331737995147705e-03,1.565429940819740295e-02,-7.416866719722747803e-03,-2.014641463756561279e-02,1.617862284183502197e-02
-3.908054903149604797e-03,-2.547687478363513947e-02,1.748813316226005554e-02,-3.276796266436576843e-02,5.036510527133941650e-03,-2.802184782922267914e-02,-1.678680256009101868e-02,-2.020979300141334534e-02,-2.416405454277992249e-02,-2.742992714047431946e-02
2.466415613889694214e-02,1.755848526954650879e-02,-2.439464256167411804e-02,-2.585797943174839020e-02,1.623964309692382812e-02,3.212731704115867615e-02,-2.276748418807983398e-02,-2.497716248035430908e-02,2.827430143952369690e-02,-2.470032684504985809e-02
2.600789442658424377e-02,2.701603621244430542e-02,-2.598517946898937225e-02,2.430748194456100464e-03,-3.017994016408920288e-02,7.800217717885971069e-03,1.877628639340400696e-02,-1.526193693280220032e-02,-5.861058831214904785e-03,2.788041532039642334e-02
9.052887558937072754e-03,-1.779431104660034180e-02,-3.236572816967964172e-02,1.144767180085182190e-02,-3.151993453502655029e-02,-3.201128914952278137e-02,-2.769388258457183838e-03,8.693072944879531860e-03,3.428686410188674927e-03,7.702041417360305786e-03
1.099441945552825928e-02,2.548084035515785217e-02,9.784474968910217285e-05,-4.176631569862365723e-03,-1.940536499023437500e-02,8.057076483964920044e-03,-1.379325240850448608e-02,2.431845292448997498e-02,-1.108352094888687134e-03,-1.991727948188781738e-02
1.042312756180763245e-02,-1.120642758905887604e-02,2.890253067016601562e-02,-2.523669973015785217e-03,2.405650913715362549e-02,-1.689266599714756012e-02,2.836280688643455505e-02,-2.888457477092742920e-02,2.188862487673759460e-02,-1.275376230478286743e-02
9.539771825075149536e-03,-1.886484026908874512e-02,2.106281742453575134e-02,8.354745805263519287e-03,-9.779293090105056763e-03,-2.459336072206497192e-02,-3.012678958475589752e-02,-7.025487720966339111e-03,-4.235288128256797791e-03,-3.015105053782463074e-02
-2.254540100693702698e-02,-2.622172608971595764e-02,1.360885053873062134e-02,-2.712375856935977936e-02,-2.621838822960853577e-03,2.639530599117279053e-02,-3.218184784054756165e-02,-7.854232564568519592e-03,1.996496319770812988e-02,-1.465135440230369568e-02
-3.002283722162246704e-02,-7.089270278811454773e-03,2.461330592632293701e-02,1.578861474990844727e-02,1.026888936758041382e-02,1.989271491765975952e-02,-1.251907274127006531e-02,2.928626164793968201e-02,3.181829676032066345e-02,1.040653884410858154e-02
7.943183183670043945e-03,-2.552244812250137329e-02,-2.459283545613288879e-02,-1.164587214589118958e-02,2.338938042521476746e-02,-1.601208746433258057e-02,-1.683120056986808777e-02,-2.221564576029777527e-02,1.221752911806106567e-02,-6.370244547724723816e-03
1.321201771497726440e-02,1.036636903882026672e-02,-4.902202636003494263e-03,3.254445269703865051e-02,-1.910535246133804321e-02,2.442035824060440063e-03,2.243183925747871399e-02,1.222198829054832458e-02,-2.643016166985034943e-02,2.869436517357826233e-02
-3.332883119583129883e-03,-3.257123753428459167e-02,-2.824123203754425049e-02,3.226194158196449280e-02,-6.260238587856292725e-03,5.634054541587829590e-04,1.296955347061157227e-02,2.071947604417800903e-02,-1.009790226817131042e-02,2.166049927473068237e-02
5.784645676612854004e-03,2.790678665041923523e-02,1.242943108081817627e-04,-2.832088246941566467e-02,1.432094722986221313e-02,7.186762988567352295e-03,1.642540469765663147e-02,-1.441802829504013062e-02,1.531409472227096558e-02,-1.985891535878181458e-02
-2.726425416767597198e-02,1.097839325666427612e-03,3.055655583739280701e-02,-1.633813790977001190e-02,9.168799966573715210e-03,3.981340676546096802e-03,-2.227028645575046539e-02,4.659473896026611328e-03,1.097952947020530701e-02,-2.845930866897106171e-02
-2.665334567427635193e-02,-2.838693372905254364e-02,2.900016680359840393e-02,-1.426259241998195648e-02,1.905452087521553040e-02,-1.163818314671516418e-02,-6.701475009322166443e-03,-2.639852091670036316e-02,1.373388990759849548e-02,3.051801398396492004e-02
-3.732720389962196350e-03,9.036108851432800293e-03,-2.033395320177078247e-02,-3.300715237855911255e-02,4.880454391241073608e-03,1.868348941206932068e-02,-6.982453167438507080e-03,-1.264173351228237152e-02,3.225575014948844910e-02,2.652223780751228333e-02
-2.376381307840347290e-03,1.041642203927040100e-02,-1.732769235968589783e-02,2.714682370424270630e-02,-1.209163106977939606e-02,1.089217513799667358e-02,1.944732666015625000e-02,2.640300244092941284e-02,-1.037806272506713867e-02,1.364133879542350769e-02
2.032243087887763977e-02,1.535361632704734802e-02,-1.989717409014701843e-02,2.474882081151008606e-02,-2.037075906991958618e-02,-1.984678395092487335e-02,-1.503411680459976196e-03,1.979574561119079590e-02,-1.638245023787021637e-02,-2.942219562828540802e-02
3.241253271698951721e-02,1.512736082077026367e-02,3.251336142420768738e-02,-2.695106528699398041e-02,2.329993247985839844e-02,-1.506524346768856049e-02,2.216651663184165955e-02,1.763815060257911682e-02,-2.869166620075702667e-02,-4.274530336260795593e-03
-3.001318871974945068e-02,1.716306060552597046e-02,4.086531698703765869e-04,1.655275374650955200e-02,1.768479496240615845e-02,2.498652413487434387e-02,2.552499622106552124e-02,-6.448213011026382446e-03,-6.193306297063827515e-03,1.489505916833877563e-02
2.368822693824768066e-03,7.302686572074890137e-05,-7.729461416602134705e-03,5.017578601837158203e-03,2.660269662737846375e-02,-1.899142749607563019e-02,-3.102075308561325073e-02,1.970052719116210938e-02,-3.248758241534233093e-02,-9.659139439463615417e-03
2.777906507253646851e-02,-2.709029242396354675e-02,3.047246113419532776e-02,-2.830841764807701111e-02,-2.069070748984813690e-02,-4.736356437206268311e-03,4.849322140216827393e-04,-7.159247994422912598e-03,1.054819673299789429e-03,5.926735699176788330e-03
-8.065445348620414734e-03,1.286889985203742981e-02,-1.878438889980316162e-02,-2.971014007925987244e-02,-3.161343559622764587e-02,-4.172530025243759155e-03,-9.219869971275329590e-04,-1.709463633596897125e-02,-2.630762755870819092e-04,5.219500511884689331e-03
-5.083678290247917175e-03,-2.593761309981346130e-02,4.590891301631927490e-03,1.141996309161186218e-02,-3.319520503282546997e-03,-1.051095873117446899e-02,-3.175590932369232178e-02,-2.240069210529327393e-02,1.367549598217010498e-02,-3.078453242778778076e-02
-4.915697500109672546e-03,-1.067435927689075470e-02,9.758904576301574707e-03,-2.427774295210838318e-02,2.301216870546340942e-02,8.878737688064575195e-03,2.328325062990188599e-03,1.070628687739372253e-02,-3.806687891483306885e-04,8.551083505153656006e-03
-1.320529729127883911e-02,1.432203501462936401e-02,-9.979993104934692383e-03,8.768744766712188721e-03,2.919567748904228210e-02,2.689988911151885986e-02,2.990826591849327087e-02,1.963236555457115173e-02,1.368551701307296753e-02,-4.916736856102943420e-03
1.458904892206192017e-02,1.886224374175071716e-02,3.227109089493751526e-02,2.865903452038764954e-02,-5.129497498273849487e-03,-4.244603216648101807e-03,-3.231951966881752014e-02,-4.932962357997894287e-03,2.806211262941360474e-02,1.561212167143821716e-02
1.541206613183021545e-02,-3.831911832094192505e-03,-1.453850790858268738e-02,-3.390522673726081848e-03,1.195426285266876221e-02,-1.772814802825450897e-02,2.399470657110214233e-03,-1.862849108874797821e-02,-2.166505157947540283e-02,-1.758592203259468079e-02
-2.078928798437118530e-02,-2.443999424576759338e-02,1.947036013007164001e-02,9.869884699583053589e-03,-2.709375135600566864e-02,5.214352160692214966e-03,1.751375570893287659e-02,4.680398851633071899e-03,-5.781389772891998291e-04,-7.168745622038841248e-03
-1.389971934258937836e-02,-5.874158814549446106e-03,-2.164319157600402832e-04,1.180433109402656555e-02,5.904737859964370728e-03,2.732963114976882935e-02,-4.172744229435920715e-03,3.026569262146949768e-02,-2.364627644419670105e-02,-1.632073149085044861e-02
-1.821782439947128296e-02,3.151805326342582703e-02,-9.611845016479492188e-03,1.255919411778450012e-02,3.225589916110038757e-02,5.820505321025848389e-04,2.117914706468582153e-02,-2.047648653388023376e-02,1.539861783385276794e-02,-3.978731110692024231e-03
-3.778928890824317932e-03,1.133818924427032471e-02,1.956887915730476379e-02,-9.031452238559722900e-03,1.049534231424331665e-02,2.019275724887847900e-02,-1.124812103807926178e-02,2.537657320499420166e-02,1.554761081933975220e-02,-2.612404152750968933e-02
-1.965208165347576141e-02,3.300628438591957092e-02,1.657620072364807129e-02,7.068369537591934204e-03,1.948380842804908752e-02,-1.569923013448715210e-03,2.358563244342803955e-03,-6.497832015156745911e-03,-1.110947318375110626e-02,-5.298636853694915771e-03
4.910081624984741211e-03,8.936177939176559448e-03,1.363065093755722046e-02,2.495361492037773132e-02,-1.660770736634731293e-02,-2.621229179203510284e-02,-9.742645546793937683e-03,-1.210050284862518311e-02,-1.579800993204116821e-02,-2.836378291249275208e-02
1.895739138126373291e-02,-1.450634375214576721e-02,-1.680199615657329559e-02,2.426772937178611755e-02,1.453954726457595825e-02,2.440826594829559326e-02,1.373173296451568604e-02,1.038381457328796387e-02,8.760374039411544800e-03,4.214342683553695679e-03
-3.115580603480339050e-02,1.623254269361495972e-02,2.356961742043495178e-02,-3.144432231783866882e-02,-1.225481182336807251e-02,1.722648367285728455e-02,1.246246322989463806e-02,5.000744014978408813e-03,-6.632680073380470276e-03,2.621885389089584351e-02
-2.683369629085063934e-02,-3.307319432497024536e-02,-1.839183270931243896e-02,7.885787636041641235e-03,-3.310481086373329163e-02,2.041172981262207031e-02,-6.270956248044967651e-03,-2.535836398601531982e-02,-2.310313470661640167e-02,-1.709535904228687286e-02
-9.018860757350921631e-03,-2.347216382622718811e-02,1.323850080370903015e-02,4.423152655363082886e-03,-1.149545796215534210e-02,-1.045987010002136230e-02,3.210585564374923706e-03,-1.224895566701889038e-02,3.307876363396644592e-02,2.759634330868721008e-02
3.213344886898994446e-02,-2.784267999231815338e-02,-3.182594105601310730e-02,2.254775539040565491e-02,6.844550371170043945e-03,2.958177402615547180e-02,1.524680480360984802e-02,-9.602807462215423584e-03,2.777796983718872070e-02,1.905087754130363464e-02
5.961265414953231812e-03,-1.337554678320884705e-02,2.698303014039993286e-02,-2.827037125825881958e-03,-2.204629220068454742e-02,-1.274757273495197296e-02,-2.971911989152431488e-02,1.643449068069458008e-02,-2.931766398251056671e-02,6.635189056396484375e-04
-1.436060294508934021e-02,4.683539271354675293e-03,6.120614707469940186e-03,2.189988270401954651e-02,-7.809288799762725830e-04,-2.479421906173229218e-02,-3.967989236116409302e-03,6.776731461286544800e-03,8.312419056892395020e-03,2.952266857028007507e-02
-1.423137262463569641e-02,-2.128668501973152161e-02,-1.452952623367309570e-03,-1.763569191098213196e-02,-2.859967760741710663e-02,6.666928529739379883e-04,-2.303610742092132568e-02,2.866020053625106812e-02,2.540660277009010315e-02,8.107218891382217407e-03
-1.952079683542251587e-02,-1.944600231945514679e-02,-1.252695918083190918e-02,1.319440454244613647e-02,-1.419106684625148773e-02,-1.887910440564155579e-02,-2.973124384880065918e-02,-1.252484880387783051e-02,2.042729407548904419e-03,1.853864639997482300e-02
1.703985035419464111e-03,1.437260583043098450e-02,2.701108530163764954e-02,-2.410279586911201477e-02,-1.946628093719482422e-02,1.898819953203201294e-02,5.900103598833084106e-03,9.781595319509506226e-03,-3.391165286302566528e-03,-2.451978623867034912e-02
-2.694990485906600952e-03,2.126306295394897461e-02,1.603574678301811218e-02,5.146779119968414307e-03,-1.912184804677963257e-02,-1.305051147937774658e-03,-2.005226910114288330e-03,-2.170205675065517426e-02,-2.226366102695465088e-02,-1.323197968304157257e-02
2.903699502348899841e-02,-2.743937447667121887e-02,-1.553710550069808960e-02,2.740435302257537842e-03,1.108501106500625610e-03,-1.254491321742534637e-02,3.063958138227462769e-03,2.883592247962951660e-02,-3.087681345641613007e-02,2.478310465812683105e-02
1.654986664652824402e-02,-3.097899630665779114e-02,-3.042219951748847961e-02,-1.201918534934520721e-02,1.246917620301246643e-02,3.267444297671318054e-02,3.243156149983406067e-02,7.790777832269668579e-03,3.153442218899726868e-02,6.506059318780899048e-03
1.656998693943023682e-02,-8.990988135337829590e-04,-2.131106518208980560e-02,-3.258371725678443909e-02,2.605521306395530701e-02,2.473982423543930054e-02,-4.904566332697868347e-03,6.267752498388290405e-03,-2.871165238320827484e-02,-3.096451610326766968e-02
-1.628067158162593842e-02,-1.908290758728981018e-02,1.671312004327774048e-02,2.380023151636123657e-02,2.752343565225601196e-02,-2.353009954094886780e-02,2.399320900440216064e-02,1.278637722134590149e-02,1.614493504166603088e-02,6.087902933359146118e-03
1.370998471975326538e-02,-5.424931645393371582e-03,-1.990159228444099426e-02,1.399155706167221069e-02,3.101609274744987488e-02,9.823143482208251953e-03,4.694312810897827148e-03,6.825111806392669678e-03,-1.999035850167274475e-02,-9.328741580247879028e-03
-2.347518689930438995e-02,2.142049372196197510e-03,-8.682811632752418518e-03,-2.038814127445220947e-04,1.401048153638839722e-03,-1.693694666028022766e-02,-8.324597030878067017e-03,1.837464794516563416e-02,2.077576145529747009e-02,-2.409151382744312286e-02
-8.038390427827835083e-03,6.336096674203872681e-03,6.438009440898895264e-03,-6.334643810987472534e-03,2.275839075446128845e-02,1.680429652333259583e-02,2.146086841821670532e-02,-1.561239361763000488e-02,1.269690692424774170e-02,-7.907828316092491150e-03
2.364601567387580872e-02,-3.042921237647533417e-02,2.177872508764266968e-02,6.632424890995025635e-03,-2.709079906344413757e-02,3.265180811285972595e-02,-1.585369929671287537e-02,-1.969523727893829346e-03,1.499867811799049377e-02,-3.255563229322433472e-02
2.153463289141654968e-02,1.206075400114059448e-02,-6.400948390364646912e-03,8.512221276760101318e-03,-3.171991929411888123e-02,1.677000522613525391e-02,2.676121145486831665e-02,9.553872048854827881e-03,-2.759594656527042389e-02,-3.203594312071800232e-02
-1.500651240348815918e-03,-2.942441031336784363e-02,-1.266106776893138885e-02,-3.779070451855659485e-03,2.176163345575332642e-02,2.598224207758903503e-02,-8.379928767681121826e-03,3.324877843260765076e-02,-2.187912911176681519e-02,-6.189014762639999390e-03
1.365912705659866333e-02,-1.479034312069416046e-02,1.498372852802276611e-02,-2.906396985054016113e-04,2.504052594304084778e-02,5.255103111267089844e-03,-2.426169998943805695e-02,2.907305955886840820e-03,-3.172177821397781372e-03,-2.159417793154716492e-02
6.897836923599243164e-03,-8.780751377344131470e-03,-4.829375073313713074e-03,1.707028597593307495e-02,-2.746236883103847504e-02,-2.622434310615062714e-02,1.861879602074623108e-02,-2.457265928387641907e-02,2.747518196702003479e-02,3.925375640392303467e-04
-2.497288584709167480e-02,1.744508370757102966e-02,1.805108040571212769e-02,-1.491907984018325806e-03,-1.615110039710998535e-02,-1.518557220697402954e-02,-1.486865244805812836e-02,-6.592497229576110840e-04,-3.168987482786178589e-02,-2.541787549853324890e-02
-2.139605581760406494e-02,2.841705083847045898e-02,1.821094378829002380e-02,-2.193596214056015015e-02,-2.236556634306907654e-02,2.099993824958801270e-02,-1.157119683921337128e-02,6.431844085454940796e-03,-6.733901798725128174e-03,-3.016139753162860870e-02
-1.712832413613796234e-02,-1.349076628684997559e-03,2.483925223350524902e-02,-2.313280850648880005e-02,1.778095588088035583e-02,7.836237549781799316e-03,-2.131495997309684753e-02,-1.098224893212318420e-02,2.985316142439842224e-02,2.850599959492683411e-02
-1.249052584171295166e-04,-3.183579817414283752e-02,-1.806745678186416626e-02,-1.993370242416858673e-02,2.848823741078376770e-02,7.332734763622283936e-03,-1.100564002990722656e-02,-8.984966203570365906e-03,-2.665035612881183624e-02,-2.680902183055877686e-02
4.898417741060256958e-03,3.981389105319976807e-03,-1.772087253630161285e-02,-2.077497541904449463e-03,2.377615869045257568e-02,-1.658577658236026764e-02,3.283822908997535706e-02,3.263774886727333069e-02,1.460164785385131836e-03,4.703588783740997314e-03
-2.963981218636035919e-02,-1.471432670950889587e-02,-9.563542902469635010e-03,2.165073901414871216e-02,-1.342032104730606079e-03,-2.268150076270103455e-02,7.462441921234130859e-03,-1.297952607274055481e-02,3.145040944218635559e-02,-2.104555815458297729e-02
-7.874678820371627808e-03,1.963469758629798889e-02,-1.837360858917236328e-02,5.796212702989578247e-03,-1.310836523771286011e-03,1.655665040016174316e-02,-9.641533717513084412e-03,2.305023744702339172e-02,-2.520192787051200867e-02,1.983343064785003662e-02
9.533669799566268921e-03,-1.536992751061916351e-02,-1.735534146428108215e-02,2.330078929662704468e-02,2.938691899180412292e-02,2.686740830540657043e-02,1.689227670431137085e-02,7.718171924352645874e-03,2.687554061412811279e-02,2.654154598712921143e-02
-2.744328603148460388e-02,1.036103442311286926e-02,-3.080746904015541077e-02,-3.042438998818397522e-03,1.164652034640312195e-02,1.262947916984558105e-04,-6.669286638498306274e-03,3.145759180188179016e-02,-3.226191923022270203e-02,1.509732753038406372e-02
1.317012682557106018e-02,2.290703356266021729e-03,2.553089708089828491e-02,2.894501760601997375e-02,2.038971334695816040e-02,3.185264393687248230e-02,2.023699879646301270e-02,2.504002302885055542e-02,1.774847507476806641e-02,2.441611140966415405e-02
1.446669548749923706e-02,7.407967001199722290e-03,6.336160004138946533e-03,7.129922509193420410e-03,2.020475268363952637e-02,-2.886248752474784851e-02,2.217535674571990967e-02,5.476992577314376831e-03,1.759524643421173096e-02,-2.099068835377693176e-02
-9.645929560065269470e-03,3.114414587616920471e-02,-1.747320219874382019e-02,1.844262704253196716e-02,-1.823438331484794617e-02,5.644116550683975220e-03,2.389059215784072876e-02,-1.621170900762081146e-02,5.622871220111846924e-03,1.524192094802856445e-02
2.651215344667434692e-02,1.004914566874504089e-02,-2.686286158859729767e-02,2.260243147611618042e-02,-2.220776677131652832e-02,2.361419051885604858e-02,-1.886755228042602539e-02,-1.758246310055255890e-02,1.677796244621276855e-03,1.006380841135978699e-02
2.479366213083267212e-02,-1.584987528622150421e-02,1.712404936552047729e-02,-5.246698856353759766e-05,1.447924226522445679e-02,-1.161125488579273224e-02,-3.239181637763977051e-02,1.458219438791275024e-02,-1.331806182861328125e-03,2.838480100035667419e-02
1.884591579437255859e-02,-1.376710832118988037e-03,-2.457883954048156738e-02,-7.207296788692474365e-03,-2.064701542258262634e-02,1.894954219460487366e-02,8.906561881303787231e-03,1.355576142668724060e-02,-1.240462996065616608e-02,6.677124649286270142e-03
2.559231594204902649e-02,2.405348420143127441e-02,5.087543278932571411e-03,5.189429968595504761e-03,-1.541134342551231384e-02,-2.584422193467617035e-02,-1.848308369517326355e-02,-3.279353305697441101e-02,-1.791451871395111084e-02,-1.272848434746265411e-02
-9.129699319601058960e-03,-5.489438772201538086e-04,1.827671006321907043e-02,1.062445342540740967e-03,-2.847723104059696198e-02,2.955425903201103210e-02,2.691634371876716614e-02,2.556836232542991638e-02,-3.071551397442817688e-02,-4.082208499312400818e-03
-1.778951846063137054e-02,-2.155803702771663666e-02,1.680263131856918335e-02,-9.237848222255706787e-03,-3.108196333050727844e-02,1.352116838097572327e-02,3.173005953431129456e-02,-3.205398097634315491e-03,1.537947356700897217e-02,-8.516045287251472473e-03
-2.809274569153785706e-02,1.795034855604171753e-02,-2.711400762200355530e-02,-3.981802612543106079e-03,-9.696485474705696106e-03,5.746450275182723999e-03,2.353321760892868042e-02,1.002125069499015808e-02,-2.920933254063129425e-02,1.624676957726478577e-02
9.916186332702636719e-03,-7.814666256308555603e-03,-6.792297586798667908e-03,2.074802294373512268e-02,2.956914529204368591e-02,-2.437445893883705139e-02,-2.766089513897895813e-02,-4.640061408281326294e-03,1.171823218464851379e-02,2.737463265657424927e-02
-1.649939827620983124e-02,-1.281046681106090546e-02,1.333914697170257568e-02,2.576429396867752075e-02,3.012837097048759460e-02,1.590331271290779114e-02,-2.860232070088386536e-02,1.721210777759552002e-02,-1.821890287101268768e-02,1.013447716832160950e-02
1.851833611726760864e-02,2.967056259512901306e-02,-2.037916891276836395e-02,-1.520218513906002045e-02,2.982119843363761902e-02,-1.087770983576774597e-02,1.545284688472747803e-02,1.851059123873710632e-02,-2.277129888534545898e-02,3.010559827089309692e-03
-7.135184481739997864e-03,2.132403105497360229e-02,-1.307764649391174316e-02,2.978578209877014160e-03,2.515760809183120728e-02,7.575906813144683838e-03,-1.064249686896800995e-02,2.778955549001693726e-02,-1.263812184333801270e-03,-1.862361282110214233e-02
-3.094286471605300903e-02,-3.297689929604530334e-02,-2.163268998265266418e-02,-2.822564914822578430e-02,-1.379355788230895996e-03,-2.011701837182044983e-02,-1.306189782917499542e-02,1.830506697297096252e-02,2.978865429759025574e-02,-3.271219506859779358e-02
3.415159881114959717e-03,1.290191337466239929e-02,2.715417742729187012e-02,-7.019083946943283081e-03,-2.959433943033218384e-03,6.612051278352737427e-03,-1.129199564456939697e-02,-8.386118337512016296e-03,-4.487369209527969360e-03,-5.430087447166442871e-03
2.954762056469917297e-02,-2.669009007513523102e-02,1.315351948142051697e-02,-2.956232801079750061e-02,5.544688552618026733e-03,7.084000855684280396e-03,5.676005035638809204e-03,-1.982909068465232849e-02,-3.094317391514778137e-02,-3.285188227891921997e-02
-2.219280973076820374e-02,1.819215714931488037e-02,3.093006834387779236e-02,2.237005159258842468e-02,-1.302109286189079285e-02,-1.869943737983703613e-02,-4.063583910465240479e-04,1.075556501746177673e-02,1.262488961219787598e-02,-1.426084712147712708e-02
1.533182710409164429e-02,-1.951608434319496155e-02,-1.110502891242504120e-02,6.273861974477767944e-03,-2.036151476204395294e-02,1.919336616992950439e-02,1.824364811182022095e-02,5.343019962310791016e-03,1.430746167898178101e-02,-2.091451175510883331e-02
-6.574165076017379761e-03,-2.753640152513980865e-02,-1.293421536684036255e-02,-3.098042309284210205e-02,-1.266176626086235046e-02,2.896483615040779114e-02,9.399719536304473877e-03,-9.868884459137916565e-03,-2.822505496442317963e-02,-2.590566314756870270e-02
2.404433116316795349e-02,1.413890719413757324e-02,7.621526718139648438e-03,-2.921780571341514587e-02,7.203884422779083252e-03,2.910624444484710693e-02,-1.120703853666782379e-02,1.634207367897033691e-02,2.858101576566696167e-02,1.234593614935874939e-02
-1.607973128557205200e-03,-1.221327669918537140e-02,1.006263494491577148e-02,-3.149195760488510132e-02,-1.665151864290237427e-02,3.251796588301658630e-02,-3.120758384466171265e-02,-2.129476144909858704e-02,-7.697641849517822266e-04,3.142139688134193420e-02
3.039010241627693176e-02,-2.759296447038650513e-03,2.894926071166992188e-02,-2.937264740467071533e-02,-1.118689402937889099e-02,-1.257343590259552002e-02,-8.817635476589202881e-03,-1.985989883542060852e-02,-2.967077121138572693e-02,-8.323863148689270020e-04
-1.890455745160579681e-02,-6.338261067867279053e-03,2.357747405767440796e-02,-2.348079532384872437e-02,-3.100361488759517670e-02,-6.279803812503814697e-03,1.220259070396423340e-02,8.762035518884658813e-03,2.572782337665557861e-03,-1.552206277847290039e-02
-2.941471338272094727e-02,-3.048098273575305939e-02,3.110781684517860413e-02,-2.401646599173545837e-02,-1.287063956260681152e-02,-3.080576285719871521e-02,-1.648454554378986359e-02,3.586057573556900024e-03,2.677603811025619507e-02,-1.993474178016185760e-02
-1.800101622939109802e-02,-1.329734176397323608e-02,-3.007643111050128937e-02,-2.250498533248901367e-02,2.395055815577507019e-02,-4.271356388926506042e-03,-1.608754880726337433e-02,1.483993977308273315e-02,2.278648689389228821e-02,1.171563565731048584e-02
-1.656567119061946869e-02,3.758348524570465088e-03,2.787977457046508789e-03,1.058544963598251343e-02,-2.747004851698875427e-02,-3.326142951846122742e-02,2.818116545677185059e-02,-2.301293984055519104e-02,2.962600067257881165e-02,-1.994098536670207977e-02
-4.026606678962707520e-03,2.069658786058425903e-02,1.423181593418121338e-02,-2.077003195881843567e-02,-2.860346250236034393e-02,3.663368523120880127e-03,2.269002422690391541e-02,-2.347584441304206848e-02,-2.003104612231254578e-02,-2.557958848774433136e-02
-1.171285845339298248e-02,-2.658350393176078796e-02,3.139888122677803040e-02,2.041300013661384583e-02,1.967263221740722656e-02,-1.664816215634346008e-02,-2.918476052582263947e-02,5.990091711282730103e-03,-1.407542824745178223e-02,1.448538154363632202e-02
-2.032244019210338593e-02,-3.167044371366500854e-03,-2.358652651309967041e-02,-1.341152749955654144e-02,1.293175667524337769e-02,-8.253943175077438354e-03,-2.243275195360183716e-02,1.580119132995605469e-02,1.833572238683700562e-02,-2.210789173841476440e-02
1.654739305377006531e-02,2.392008900642395020e-05,2.252634242177009583e-02,-1.736942492425441742e-02,2.919273450970649719e-02,2.262590825557708740e-02,-2.208178862929344177e-02,-1.053835451602935791e-02,-2.265576273202896118e-02,-2.252228185534477234e-02
2.963968738913536072e-02,2.014246210455894470e-02,-2.097530290484428406e-02,1.409320905804634094e-02,1.920425891876220703e-02,-3.258144110441207886e-02,-2.397055923938751221e-02,-6.182881072163581848e-03,2.446581795811653137e-02,1.940542086958885193e-02
2.078808099031448364e-02,-1.566990651190280914e-02,2.063734456896781921e-02,-1.394279301166534424e-02,-2.368608117103576660e-02,2.749381959438323975e-02,-2.079835720360279083e-02,2.499192953109741211e-02,1.347946748137474060e-02,-7.551254704594612122e-03
-5.468703806400299072e-03,-3.801984712481498718e-03,1.456190645694732666e-02,9.343229234218597412e-03,-6.371965631842613220e-03,3.103981539607048035e-02,1.854857802391052246e-02,1.816708594560623169e-02,2.978759631514549255e-02,8.296016603708267212e-03
1.697102189064025879e-02,5.180839449167251587e-03,2.917852252721786499e-03,2.785396948456764221e-02,-2.958516217768192291e-02,3.644071519374847412e-03,2.122955769300460815e-02,1.992683857679367065e-03,2.999227121472358704e-02,9.275376796722412109e-03
-1.146152429282665253e-02,1.479331776499748230e-02,2.823337167501449585e-02,1.214909180998802185e-02,-2.486115880310535431e-02,5.402389913797378540e-03,-2.052390947937965393e-02,5.187910050153732300e-03,-3.224083781242370605e-02,-8.814185857772827148e-04
1.915358006954193115e-03,2.749197185039520264e-02,-3.167151287198066711e-02,-1.537187211215496063e-02,-1.045360974967479706e-02,4.718836396932601929e-03,-1.795559376478195190e-02,-2.706751227378845215e-02,-7.137190550565719604e-03,4.173599183559417725e-03
-3.011210262775421143e-02,-1.408759504556655884e-03,4.703119397163391113e-03,-3.114057332277297974e-02,-1.618662849068641663e-02,2.708227932453155518e-02,-3.056013956665992737e-02,-4.568813368678092957e-03,8.974287658929824829e-03,4.007127135992050171e-03
-8.985925465822219849e-03,1.253316923975944519e-02,1.349058374762535095e-02,-1.566837541759014130e-02,2.520467340946197510e-02,-2.871956303715705872e-02,-1.720501482486724854e-02,-1.261447928845882416e-02,-2.809964865446090698e-02,-3.327459469437599182e-02
9.181372821331024170e-03,7.996447384357452393e-04,-1.034434325993061066e-02,-1.457720994949340820e-03,-1.932323724031448364e-02,-1.207369193434715271e-02,2.234515175223350525e-02,5.929093807935714722e-03,-2.630211412906646729e-02,6.306868046522140503e-03
-2.738216333091259003e-02,2.093493565917015076e-02,5.235932767391204834e-04,1.928450539708137512e-02,-2.508223056793212891e-03,-4.771385341882705688e-03,-1.157345809042453766e-02,-6.377028301358222961e-03,-3.134153410792350769e-02,-1.374252140522003174e-02
2.368605136871337891e-02,8.378889411687850952e-03,-3.005473129451274872e-02,1.320227608084678650e-02,-3.032153099775314331e-02,-1.407172530889511108e-03,-1.325623504817485809e-02,-2.727441117167472839e-02,1.481554284691810608e-02,3.230296075344085693e-03
2.699589356780052185e-02,3.256666287779808044e-02,-2.004662901163101196e-02,3.104143962264060974e-02,-7.579872384667396545e-03,-1.075260527431964874e-02,1.628171280026435852e-02,-2.150174602866172791e-02,-1.868153735995292664e-02,-1.266285404562950134e-02
-3.441872075200080872e-03,-1.831104978919029236e-02,-1.609445922076702118e-02,6.116449832916259766e-03,9.341206401586532593e-03,-1.064832136034965515e-02,2.208442240953445435e-02,-6.516881287097930908e-03,1.024103164672851562e-02,2.819120883941650391e-02
-5.269050598144531250e-03,2.577597275376319885e-02,8.520122617483139038e-03,6.117202341556549072e-03,1.627523824572563171e-02,-2.314460650086402893e-02,2.052558213472366333e-02,1.269411295652389526e-03,2.396151423454284668e-02,-1.563382335007190704e-02
-3.241522237658500671e-03,-1.706608198583126068e-02,-9.410168975591659546e-03,1.409472525119781494e-02,-2.473340369760990143e-02,-2.272240072488784790e-02,1.077127456665039062e-02,-2.568340674042701721e-02,-3.061056137084960938e-02,1.978630945086479187e-02
-1.246222481131553650e-02,2.741393074393272400e-02,-2.958693169057369232e-02,-3.181735798716545105e-02,-7.212089374661445618e-03,1.326436549425125122e-02,-1.687575876712799072e-02,-1.716781966388225555e-02,-2.627131342887878418e-02,-1.760609820485115051e-02
1.475019007921218872e-02,-1.033328287303447723e-02,-1.891156286001205444e-02,1.809540018439292908e-02,9.852938354015350342e-03,3.188922628760337830e-02,5.500320345163345337e-03,6.624482572078704834e-03,-1.937665790319442749e-02,1.308077946305274963e-02
-1.836505532264709473e-02,-2.208386734127998352e-02,-1.568306237459182739e-02,-2.810450457036495209e-02,-8.801292628049850464e-03,-2.397255972027778625e-03,-5.095824599266052246e-04,-2.482710592448711395e-02,-2.909514494240283966e-02,-1.887984573841094971e-03
-1.450362987816333771e-02,-2.400672249495983124e-02,2.814298495650291443e-02,-1.176091656088829041e-02,-8.599560707807540894e-03,-2.263430133461952209e-02,-1.097251474857330322e-02,6.417270749807357788e-03,-2.256042882800102234e-02,1.602612435817718506e-03
-1.047847606241703033e-02,2.538610249757766724e-03,6.073828786611557007e-03,2.688901126384735107e-02,2.571945264935493469e-02,-9.380478411912918091e-03,-1.702988706529140472e-02,-2.841500565409660339e-02,-6.062924861907958984e-03,-2.752485685050487518e-02
1.400103792548179626e-02,3.183056041598320007e-02,5.177363753318786621e-03,5.685802549123764038e-03,2.653665095567703247e-02,1.776405796408653259e-02,6.451394408941268921e-03,1.763030886650085449e-03,-5.781695246696472168e-03,-1.722216792404651642e-02
2.853209525346755981e-02,1.684219017624855042e-02,2.556165680289268494e-02,3.138865157961845398e-02,-2.126700803637504578e-02,3.161216899752616882e-02,9.297378361225128174e-03,-2.984889037907123566e-02,-1.412534900009632111e-02,3.159828484058380127e-04
-2.705293893814086914e-02,-1.306602358818054199e-02,1.133411750197410583e-02,-2.473394386470317841e-02,-1.929312944412231445e-03,-1.008914224803447723e-02,-1.965226419270038605e-02,4.511050879955291748e-03,-2.070749551057815552e-02,1.241534203290939331e-02
1.646842435002326965e-02,7.297355681657791138e-03,6.868012249469757080e-03,-2.373914606869220734e-02,7.007095962762832642e-03,1.469879224896430969e-02,-4.932684823870658875e-03,4.774052649736404419e-03,3.315724059939384460e-02,-1.560307107865810394e-02
2.611551061272621155e-02,3.039687871932983398e-04,-2.196288853883743286e-02,-1.740044727921485901e-02,-2.350434474647045135e-02,3.304501250386238098e-02,1.061740145087242126e-02,1.298196613788604736e-03,-2.251304686069488525e-02,-1.591833867132663727e-02
-1.650142110884189606e-02,5.312521010637283325e-03,-1.695648021996021271e-02,4.921354353427886963e-03,-1.771262288093566895e-02,9.375330060720443726e-03,-1.627572812139987946e-02,2.120370045304298401e-02,-7.539408281445503235e-03,-2.893223613500595093e-02
2.737376838922500610e-02,-1.859396323561668396e-02,3.011381998658180237e-02,-2.185800857841968536e-02,3.160911425948143005e-02,-3.324414044618606567e-02,-2.246484532952308655e-02,1.417623087763786316e-02,-3.209803998470306396e-02,-2.314389869570732117e-02
2.656648308038711548e-02,-1.423011906445026398e-02,2.702409774065017700e-02,-1.118015497922897339e-03,-4.448603838682174683e-03,-2.324624918401241302e-02,3.725625574588775635e-03,3.326296433806419373e-02,-1.826899126172065735e-02,3.167867660522460938e-03
4.754032939672470093e-03,1.169269904494285583e-02,1.439629867672920227e-02,1.876290887594223022e-03,-2.567514777183532715e-02,2.944831177592277527e-02,-7.656216621398925781e-04,1.662240922451019287e-02,-2.419153042137622833e-02,-1.332272216677665710e-02
3.374274820089340210e-03,2.964115515351295471e-02,-2.276515215635299683e-02,2.793341875076293945e-03,3.026444092392921448e-02,-1.948152296245098114e-02,1.268645748496055603e-02,-1.030424423515796661e-02,-4.046972841024398804e-03,5.079403519630432129e-03
2.823497354984283447e-02,1.273379102349281311e-02,1.066582277417182922e-02,-2.947540208697319031e-02,-2.922256663441658020e-02,2.325286716222763062e-02,-2.394529804587364197e-02,2.006658166646957397e-02,1.357448473572731018e-02,-1.100406050682067871e-02
1.772341132164001465e-02,2.299614250659942627e-02,2.918571233749389648e-03,1.401418447494506836e-02,1.411675661802291870e-02,1.414794474840164185e-02,2.007901296019554138e-02,-4.999157041311264038e-03,2.169055119156837463e-02,-2.268365956842899323e-02
2.648293972015380859e-02,-3.063429147005081177e-02,1.175973564386367798e-03,3.136066719889640808e-02,-2.960300445556640625e-02,-2.406907640397548676e-02,-1.446354761719703674e-02,2.025216072797775269e-02,1.527498662471771240e-02,1.310347020626068115e-02
-8.095318451523780823e-03,-3.156307712197303772e-02,1.550533995032310486e-02,1.478126645088195801e-02,-1.360325515270233154e-02,3.085872903466224670e-02,2.575831115245819092e-02,1.484895125031471252e-02,1.786563545465469360e-03,-2.723804861307144165e-02
8.403748273849487305e-03,-1.998458430171012878e-02,-2.283908799290657043e-02,-3.064623288810253143e-02,1.916928589344024658e-02,-2.500288188457489014e-03,-5.270089954137802124e-03,3.266600891947746277e-02,-8.614404127001762390e-03,-3.126190975308418274e-02
3.027296438813209534e-02,-1.341544836759567261e-02,-4.671867936849594116e-03,1.949399709701538086e-02,9.271878749132156372e-03,-1.550851203501224518e-02,1.111093163490295410e-02,2.511741220951080322e-02,-3.257603943347930908e-02,-1.732437498867511749e-02
3.144424781203269958e-02,2.493853121995925903e-02,-2.944391965866088867e-02,-3.797231242060661316e-03,1.298070698976516724e-02,2.339103817939758301e-02,-2.286389842629432678e-02,-1.621193066239356995e-02,-8.384190499782562256e-03,5.370020866394042969e-03
-1.072313822805881500e-02,-3.005856461822986603e-02,3.157706931233406067e-02,2.064120769500732422e-02,-2.488940395414829254e-02,-1.682859845459461212e-02,-2.406512573361396790e-02,2.838926017284393311e-02,-2.395289763808250427e-02,-7.963104173541069031e-03
-2.578048035502433777e-02,2.260342985391616821e-02,-2.488748356699943542e-02,-2.165927551686763763e-02,1.417486742138862610e-02,1.188147440552711487e-02,2.083938568830490112e-02,1.702293753623962402e-03,8.239891380071640015e-03,-2.141666784882545471e-02
2.640246972441673279e-02,-3.132514283061027527e-02,-5.299557000398635864e-03,-3.193363919854164124e-02,1.226688921451568604e-02,1.958109438419342041e-02,-2.667785435914993286e-02,1.628297939896583557e-02,-2.308422699570655823e-02,2.224151045083999634e-03
-1.344205066561698914e-02,2.825564891099929810e-02,-1.137921586632728577e-02,5.130775272846221924e-03,2.424175292253494263e-02,1.756656169891357422e-02,-2.205805107951164246e-02,1.392022147774696350e-02,1.859654113650321960e-02,3.093584999442100525e-02
-2.795238420367240906e-02,-1.299452222883701324e-02,-1.617490313947200775e-02,-2.745789289474487305e-02,3.143735602498054504e-02,-4.865976050496101379e-03,2.770435810089111328e-02,-1.784914359450340271e-02,-1.248855143785476685e-03,-1.328759826719760895e-02
-2.423385903239250183e-02,2.544093132019042969e-02,-2.550272271037101746e-03,-3.192063421010971069e-02,-7.485486567020416260e-04,2.756803482770919800e-02,2.589365839958190918e-02,-2.335959672927856445e-02,4.798907786607742310e-03,-2.789317257702350616e-02
6.961014121770858765e-03,-2.376511320471763611e-02,6.288841366767883301e-03,-1.620034687221050262e-02,-2.352952770888805389e-02,3.248877823352813721e-03,-2.438966929912567139e-02,-2.212773635983467102e-02,2.514345198869705200e-02,-2.083552069962024689e-02
-2.105941995978355408e-03,3.206029161810874939e-02,-4.757445305585861206e-03,-2.287379279732704163e-02,-1.546874642372131348e-02,2.888352051377296448e-02,-3.149026632308959961e-02,-1.086048781871795654e-03,1.257536560297012329e-02,-3.263732045888900757e-02
1.443205028772354126e-02,-5.942396819591522217e-04,-4.476992413401603699e-03,1.525441557168960571e-02,-2.437803708016872406e-02,1.079376786947250366e-02,1.566698774695396423e-02,-1.574317738413810730e-02,2.053444460034370422e-02,-1.727488264441490173e-02
-3.244430199265480042e-02,2.903372049331665039e-03,1.675327122211456299e-02,-3.152194991707801819e-02,1.503514871001243591e-02,-1.463647931814193726e-03,2.636214345693588257e-02,4.729166626930236816e-03,-3.284338489174842834e-02,2.781931310892105103e-02
2.533681690692901611e-03,-2.829469181597232819e-02,3.314265236258506775e-02,-2.801552414894104004e-02,-2.626180835068225861e-02,-2.383178472518920898e-02,-8.137669414281845093e-03,2.635901793837547302e-02,2.975769713521003723e-02,-2.492619305849075317e-02
-2.413207292556762695e-02,-5.144923925399780273e-04,-1.907785236835479736e-02,4.474088549613952637e-03,-9.205009788274765015e-03,3.134288266301155090e-02,3.077227994799613953e-02,4.773806780576705933e-03,-2.613601461052894592e-02,1.437179744243621826e-02
-3.541747108101844788e-03,9.359382092952728271e-03,1.443739980459213257e-03,-2.198823913931846619e-02,-2.593448758125305176e-02,7.604073733091354370e-03,3.254314884543418884e-02,-2.963585220277309418e-02,-9.213713929057121277e-03,-2.473391592502593994e-03
2.004354819655418396e-02,-2.842726185917854309e-02,2.802394330501556396e-02,-2.247255295515060425e-03,3.076250478625297546e-02,-1.815181225538253784e-02,-6.947709247469902039e-03,-2.442010305821895599e-02,1.093726605176925659e-03,3.372196108102798462e-03
-8.935593068599700928e-04,1.614702120423316956e-02,2.842766046524047852e-02,-1.659490913152694702e-02,5.361910909414291382e-03,1.416307687759399414e-02,-4.343746230006217957e-03,2.185430377721786499e-02,2.334779873490333557e-02,-2.136293053627014160e-02
3.816679120063781738e-03,-2.764791436493396759e-02,-2.180074155330657959e-02,-1.578809320926666260e-02,2.909328788518905640e-03,3.088177368044853210e-02,-2.346362732350826263e-02,-1.251059770584106445e-02,-1.183081418275833130e-02,2.300729230046272278e-02
2.923054620623588562e-02,2.445597201585769653e-03,-5.757384002208709717e-03,-1.236572302877902985e-02,3.615953028202056885e-03,-1.444838568568229675e-02,2.211366966366767883e-02,1.603566855192184448e-02,-3.145900741219520569e-02,1.195606216788291931e-02
-2.258766442537307739e-03,2.765790373086929321e-02,2.237885817885398865e-02,1.727747544646263123e-02,-8.636699989438056946e-03,-3.230871632695198059e-02,4.092290997505187988e-03,3.242747113108634949e-02,2.925774082541465759e-02,-2.767883427441120148e-02
6.918210536241531372e-03,1.446783915162086487e-02,1.937510445713996887e-02,-1.164492778480052948e-02,-1.444352976977825165e-02,9.397491812705993652e-03,1.753824576735496521e-02,-3.003898262977600098e-02,-2.569672837853431702e-02,-2.736170962452888489e-02
-9.283041581511497498e-03,-3.146946430206298828e-02,-1.980845443904399872e-02,7.370937615633010864e-03,1.200255751609802246e-02,-2.038440480828285217e-02,2.617605030536651611e-02,-1.743767410516738892e-03,2.405082061886787415e-02,-1.224678009748458862e-03
-3.188065439462661743e-02,-2.473111823201179504e-02,7.969532161951065063e-03,1.646621897816658020e-02,2.120094001293182373e-02,-2.095609530806541443e-02,-1.775039546191692352e-02,1.416703313589096069e-02,2.519473433494567871e-03,-2.034319564700126648e-02
-7.648542523384094238e-04,3.081720694899559021e-02,1.294394209980964661e-02,1.574113965034484863e-02,-2.521577104926109314e-02,2.887840196490287781e-02,-2.296444773674011230e-02,-2.580914646387100220e-02,-2.760079503059387207e-02,2.271059527993202209e-02
7.670026272535324097e-03,-1.286148279905319214e-02,1.396230235695838928e-02,1.784466207027435303e-02,2.763443440198898315e-02,-2.062030881643295288e-02,-3.019547462463378906e-02,-2.767909504473209381e-02,4.046488553285598755e-03,-3.312745690345764160e-02
1.467582210898399353e-02,8.705183863639831543e-04,-2.023968845605850220e-02,-1.840587705373764038e-03,-1.798822730779647827e-02,3.067876026034355164e-02,-2.652946487069129944e-02,3.225753828883171082e-02,-1.301964931190013885e-02,1.411293074488639832e-02
7.868260145187377930e-03,2.782787382602691650e-02,2.931425347924232483e-02,1.819456741213798523e-02,-1.199036836624145508e-02,2.594846114516258240e-02,1.854528486728668213e-02,1.459824293851852417e-02,-1.300904154777526855e-02,2.219122275710105896e-02
-3.328939899802207947e-03,7.727731019258499146e-03,-2.225529961287975311e-02,-1.395629718899726868e-02,-2.922505885362625122e-02,-2.162614278495311737e-02,-1.336605101823806763e-02,-6.218513473868370056e-03,-1.355012133717536926e-02,-2.785306610167026520e-02
1.738030463457107544e-03,3.147414699196815491e-02,-2.712679654359817505e-02,2.324894815683364868e-02,-1.373618841171264648e-03,-2.156643941998481750e-02,-1.511844992637634277e-02,-7.110057398676872253e-03,2.125766128301620483e-02,-1.148519106209278107e-02
1.594147458672523499e-02,-1.369980536401271820e-02,-1.585957966744899750e-02,1.374274492263793945e-02,9.090688079595565796e-03,1.437985152006149292e-02,4.481673240661621094e-03,8.202563971281051636e-03,-2.034044265747070312e-02,-1.237177662551403046e-02
-8.287640288472175598e-03,2.372249960899353027e-03,2.324593067169189453e-02,-2.841468714177608490e-02,9.607695043087005615e-03,-9.137276560068130493e-03,1.515451818704605103e-02,1.841994374990463257e-02,-1.089495979249477386e-02,6.253328174352645874e-03
-1.769659481942653656e-02,1.375138387084007263e-02,-2.896123379468917847e-02,-7.328409701585769653e-03,-2.723166160285472870e-02,9.250424802303314209e-03,1.622804626822471619e-02,3.466941416263580322e-04,2.574387192726135254e-02,-6.952779367566108704e-03
-1.377565413713455200e-02,2.549733966588973999e-03,4.153329879045486450e-03,-1.998434588313102722e-02,-2.380399033427238464e-02,8.263669908046722412e-03,2.158320322632789612e-02,1.630109548568725586e-02,-2.466402947902679443e-02,-6.924828514456748962e-03
-5.274865776300430298e-03,1.182461157441139221e-02,-2.933899872004985809e-02,2.429820597171783447e-02,-1.828733459115028381e-02,1.805238425731658936e-03,2.390568330883979797e-02,2.870320156216621399e-02,1.750715449452400208e-02,-2.978148311376571655e-02
-2.216351777315139771e-02,-2.153649553656578064e-02,-1.031945273280143738e-02,1.869378983974456787e-02,-5.901927128434181213e-03,2.435726672410964966e-02,-1.468992233276367188e-02,-5.121920257806777954e-03,2.408108860254287720e-02,2.729111164808273315e-02
2.037039399147033691e-02,-3.295689076185226440e-02,-2.153814584016799927e-02,-1.117050088942050934e-02,-2.312354743480682373e-02,-1.443650573492050171e-03,-1.493787020444869995e-02,-2.840990386903285980e-02,2.077180892229080200e-02,-2.002179622650146484e-03
4.326473921537399292e-03,-2.241933718323707581e-02,1.780493557453155518e-02,1.260260120034217834e-02,1.386903226375579834e-02,1.770712435245513916e-03,-9.466286748647689819e-03,-1.868571154773235321e-02,3.326577320694923401e-02,6.802398711442947388e-03
-1.004077680408954620e-02,-2.879910916090011597e-02,-2.346421405673027039e-02,9.739916771650314331e-03,3.068715706467628479e-02,-3.296510875225067139e-02,-1.541395299136638641e-02,2.120980247855186462e-02,-2.016617730259895325e-02,1.192150264978408813e-02
-1.387562416493892670e-02,1.758851110935211182e-03,-3.260278329253196716e-02,1.003903150558471680e-02,2.761448919773101807e-02,-1.962110027670860291e-02,-2.018228173255920410e-03,-3.112917952239513397e-02,-2.183800563216209412e-02,-1.052234321832656860e-03
9.423267096281051636e-03,1.841746270656585693e-04,7.181242108345031738e-05,7.043093442916870117e-03,3.239749744534492493e-02,-3.157527372241020203e-02,-2.815770357847213745e-02,-1.346754282712936401e-02,-1.482393592596054077e-03,-1.924907043576240540e-02
1.763104274868965149e-02,1.026573777198791504e-02,-1.265338063240051270e-02,2.447929978370666504e-02,2.845907956361770630e-02,-9.203510358929634094e-03,-6.178952753543853760e-03,-1.646536216139793396e-02,-3.750126808881759644e-03,9.466238319873809814e-03
2.461794018745422363e-02,8.471511304378509521e-03,-3.108667768537998199e-02,8.302453905344009399e-03,-5.348375067114830017e-03,-6.177287548780441284e-03,-1.845924928784370422e-02,4.417963325977325439e-03,1.225232705473899841e-02,2.095833048224449158e-02
3.060926124453544617e-02,2.108485624194145203e-02,-1.531061157584190369e-02,1.627487316727638245e-02,1.947185024619102478e-02,-4.173021763563156128e-03,-1.567069254815578461e-02,2.643804624676704407e-02,5.059726536273956299e-04,-3.145004808902740479e-02
-1.762941479682922363e-03,3.493033349514007568e-03,2.012561261653900146e-02,2.272772416472434998e-02,1.604555174708366394e-02,2.815368771553039551e-02,1.293653249740600586e-02,-1.767131686210632324e-02,-3.116100281476974487e-02,2.779320999979972839e-02
-1.810684055089950562e-02,-7.365169003605842590e-03,2.462219446897506714e-03,-7.566981017589569092e-03,-6.714344024658203125e-03,-6.869234144687652588e-03,-3.058207035064697266e-02,1.348675787448883057e-02,6.145223975181579590e-03,-1.110832206904888153e-02
1.164831593632698059e-02,8.543949574232101440e-03,-7.480101659893989563e-03,-2.600679174065589905e-03,2.422009408473968506e-02,2.659859508275985718e-02,2.229218557476997375e-02,1.207065582275390625e-02,-3.386929631233215332e-03,-2.155823633074760437e-03
-3.108463063836097717e-02,3.231950476765632629e-02,-3.135761618614196777e-02,1.297188550233840942e-02,-1.449055969715118408e-03,-1.987910643219947815e-02,2.974156662821769714e-02,4.785031080245971680e-03,-1.305447146296501160e-02,1.243589073419570923e-02
-2.972307242453098297e-02,3.100702539086341858e-02,-2.188870497047901154e-02,3.238054737448692322e-02,9.901821613311767578e-05,-2.175224758684635162e-02,-3.103246353566646576e-02,7.359407842159271240e-03,3.181587904691696167e-03,-1.823838055133819580e-02
2.421811595559120178e-02,9.484145790338516235e-03,-6.698183715343475342e-03,1.611831784248352051e-02,2.651798352599143982e-02,-3.246643021702766418e-02,-2.941630780696868896e-02,-2.873688936233520508e-05,4.955478012561798096e-03,5.285885185003280640e-03
-2.712352760136127472e-02,5.215391516685485840e-03,2.756692469120025635e-02,6.469532847404479980e-03,-3.251329436898231506e-02,-2.604129537940025330e-02,3.769874572753906250e-03,-8.891923353075981140e-03,2.944536879658699036e-02,-3.107472881674766541e-02
2.975744381546974182e-02,-3.918536007404327393e-03,-1.769962534308433533e-02,1.951767876744270325e-02,2.832050994038581848e-02,4.325941205024719238e-03,4.390161484479904175e-03,1.529698818922042847e-02,1.863171160221099854e-02,7.493011653423309326e-03
-1.014841906726360321e-02,9.654872119426727295e-03,4.756953567266464233e-03,-2.413943596184253693e-02,1.601636409759521484e-02,1.779285818338394165e-02,5.028735846281051636e-03,-3.889631479978561401e-03,5.604065954685211182e-04,-1.333394087851047516e-02
-2.024435997009277344e-02,1.257978379726409912e-02,-2.612769603729248047e-03,-2.316329814493656158e-02,1.317724958062171936e-02,1.470482349395751953e-02,-3.092694841325283051e-02,-1.326648518443107605e-02,1.256988942623138428e-02,1.985134556889533997e-02
2.680323645472526550e-02,3.103550896048545837e-02,-3.879563882946968079e-03,6.975915282964706421e-03,-1.977968588471412659e-02,4.476815462112426758e-03,-2.552540600299835205e-02,4.785660654306411743e-03,-2.295101433992385864e-02,-5.582461133599281311e-03
-3.063544258475303650e-02,2.422010153532028198e-02,2.800021320581436157e-03,6.678380072116851807e-03,3.804635256528854370e-03,-2.057261019945144653e-02,1.017235592007637024e-02,-1.307900995016098022e-03,-1.119946874678134918e-02,1.524923369288444519e-02
-2.016859129071235657e-02,-7.941959425806999207e-03,-1.140180416405200958e-02,-2.975086495280265808e-02,2.231538295745849609e-02,1.145447790622711182e-02,4.565782845020294189e-03,-2.774050459265708923e-02,5.296129733324050903e-03,8.021745830774307251e-03
9.289246052503585815e-03,-6.847288459539413452e-03,8.102729916572570801e-03,-1.555089652538299561e-02,6.064932793378829956e-03,-3.689637407660484314e-03,7.095433771610260010e-03,1.593326404690742493e-02,9.591486304998397827e-03,-1.872287504374980927e-02
1.270852982997894287e-02,8.558072149753570557e-03,-1.555109396576881409e-02,-8.796071633696556091e-03,7.785633206367492676e-04,-1.673736423254013062e-02,4.327353090047836304e-03,3.028772398829460144e-02,1.376530155539512634e-02,-1.247190311551094055e-02
-1.690278202295303345e-02,1.022834703326225281e-02,9.018257260322570801e-03,3.276974335312843323e-02,-2.296464517712593079e-02,-5.172872915863990784e-03,2.672277763485908508e-02,-1.457607559859752655e-02,7.386256009340286255e-03,8.581042289733886719e-03
2.781125530600547791e-02,-8.562127128243446350e-03,9.459663182497024536e-03,9.369816631078720093e-03,-3.482693806290626526e-03,-1.954376697540283203e-03,-1.753603294491767883e-02,7.065776735544204712e-03,4.207417368888854980e-03,-2.169727906584739685e-02
-2.167277969419956207e-02,1.399596035480499268e-02,2.024820074439048767e-02,6.518848240375518799e-03,2.865557372570037842e-02,-2.491069212555885315e-02,4.354871809482574463e-03,-1.373891904950141907e-02,1.365921273827552795e-02,2.473365887999534607e-02
-5.825847387313842773e-03,-2.873351797461509705e-02,5.296058952808380127e-04,2.647127583622932434e-02,9.318623691797256470e-03,3.076112642884254456e-02,1.564470678567886353e-02,-6.287705153226852417e-03,-2.181593328714370728e-02,4.788301885128021240e-03
-2.376604080200195312e-02,1.476597040891647339e-02,-8.876625448465347290e-03,1.549933105707168579e-02,2.499379962682723999e-02,-3.267046809196472168e-02,-1.617475226521492004e-02,-2.556490339338779449e-02,1.693798601627349854e-02,3.163858130574226379e-02
3.197961673140525818e-02,2.476333081722259521e-02,2.422084659337997437e-02,1.646952703595161438e-02,-2.550558745861053467e-02,-3.312607482075691223e-02,2.780709415674209595e-03,-1.177446730434894562e-02,2.009849250316619873e-02,1.740190759301185608e-02
2.386494725942611694e-02,-3.326456621289253235e-02,-9.001333266496658325e-03,-6.371743977069854736e-03,-2.049358561635017395e-02,1.726222783327102661e-02,-8.922977373003959656e-03,1.643132418394088745e-03,-1.822986081242561340e-02,-3.023039177060127258e-02
-7.873084396123886108e-03,4.771400243043899536e-03,-3.321075811982154846e-03,2.331949025392532349e-02,-2.656615152955055237e-02,-2.013505995273590088e-02,1.270202547311782837e-02,1.221911609172821045e-02,1.011394336819648743e-02,2.848417311906814575e-02
-3.257344290614128113e-02,-2.191483974456787109e-02,8.284598588943481445e-04,1.275461167097091675e-02,-8.384991437196731567e-03,-2.715845406055450439e-02,-8.602514863014221191e-04,1.371911540627479553e-02,-6.389254704117774963e-03,2.166314050555229187e-02
-1.988443918526172638e-02,-2.882203087210655212e-02,-2.755270525813102722e-02,-3.254988789558410645e-02,-9.857254102826118469e-03,-2.672626823186874390e-02,-3.689218312501907349e-03,5.028981715440750122e-03,-1.363547518849372864e-02,2.182735130190849304e-02
5.394861102104187012e-03,3.313491120934486389e-02,-2.608064934611320496e-02,-2.493446134030818939e-02,-2.616015635430812836e-02,5.339916795492172241e-03,-1.691458933055400848e-02,-1.010857336223125458e-02,6.720386445522308350e-04,-2.466347068548202515e-03
1.962861418724060059e-02,-1.206867769360542297e-02,-1.584540121257305145e-02,3.156026825308799744e-02,-3.239480033516883850e-02,2.340532839298248291e-02,-1.558236964046955109e-02,-2.486136555671691895e-02,-7.965143769979476929e-03,2.215573564171791077e-02
7.772497832775115967e-03,3.105598315596580505e-02,3.262015804648399353e-02,-3.260700404644012451e-02,-7.236598059535026550e-03,-1.553574204444885254e-02,-1.002557575702667236e-02,2.614204213023185730e-02,8.008226752281188965e-03,6.913069635629653931e-03
-2.948259003460407257e-02,3.266819939017295837e-02,2.424511685967445374e-02,3.814283758401870728e-03,-1.637739688158035278e-02,-8.047737181186676025e-03,1.967445015907287598e-03,1.814110204577445984e-02,-3.126124292612075806e-02,1.126464828848838806e-02
-2.687312103807926178e-02,1.948364078998565674e-03,3.260621801018714905e-02,-1.613330096006393433e-03,-3.186021745204925537e-02,-9.416794404387474060e-03,-6.818320602178573608e-03,1.882677152752876282e-02,-1.736637018620967865e-02,1.611904054880142212e-02
8.734591305255889893e-03,-1.937833242118358612e-02,-8.077736943960189819e-03,-8.424010127782821655e-03,-2.114857546985149384e-02,1.537885516881942749e-02,2.820210903882980347e-02,9.440325200557708740e-03,-1.584751904010772705e-02,1.200174540281295776e-02
2.285379916429519653e-03,1.061809062957763672e-02,9.140331298112869263e-03,-1.790472865104675293e-02,2.483949065208435059e-02,-1.840905100107192993e-02,-3.057476319372653961e-02,-1.036545448005199432e-02,-1.348063349723815918e-03,2.417052909731864929e-02
1.410864666104316711e-02,1.138936728239059448e-03,1.332077756524085999e-02,8.470337837934494019e-03,2.230774611234664917e-03,-2.292070537805557251e-02,-2.960149012506008148e-02,-1.105143502354621887e-02,-2.635617554187774658e-02,-8.818341419100761414e-03
-2.396184951066970825e-03,-7.068688049912452698e-03,5.847919732332229614e-03,-4.791522398591041565e-03,2.615952864289283752e-02,1.696434989571571350e-02,-1.049501076340675354e-02,-2.350582927465438843e-02,-9.736837819218635559e-03,-2.429563365876674652e-02
-2.273217588663101196e-02,-3.234778344631195068e-02,-2.109931223094463348e-02,-1.401069387793540955e-02,1.355154067277908325e-02,9.783975780010223389e-03,3.093748167157173157e-02,2.603065595030784607e-02,-2.901493199169635773e-02,-2.033814974129199982e-02
-2.520409226417541504e-02,1.013805717229843140e-02,-2.268061414361000061e-02,1.717532426118850708e-02,2.549056708812713623e-02,-1.740615814924240112e-03,9.603094309568405151e-03,-2.668822556734085083e-02,1.223196089267730713e-02,-2.454950846731662750e-02
1.376637816429138184e-02,-3.020167350769042969e-04,3.116965666413307190e-02,2.171790972352027893e-02,-6.334843114018440247e-03,4.947308450937271118e-03,2.874222025275230408e-02,-1.100829802453517914e-02,1.707011088728904724e-02,-2.277158200740814209e-04
2.765102311968803406e-02,1.576336100697517395e-02,-2.791392803192138672e-02,-1.264318451285362244e-02,-2.394398674368858337e-02,3.100017830729484558e-02,4.734247922897338867e-04,2.894312143325805664e-03,9.053133428096771240e-03,-1.159979030489921570e-02
2.644054591655731201e-02,2.212709933519363403e-02,-3.281114995479583740e-02,1.100168004631996155e-02,1.149177551269531250e-04,-3.305311501026153564e-02,2.223721891641616821e-02,8.540675044059753418e-03,-2.963097393512725830e-02,-6.026595830917358398e-03
2.401703596115112305e-02,-2.946305647492408752e-02,3.429036587476730347e-03,1.133724302053451538e-02,-2.286553382873535156e-02,2.697066962718963623e-02,-3.215111792087554932e-04,-2.015172317624092102e-02,-1.294367201626300812e-02,1.539546623826026917e-02
-2.286383509635925293e-02,-2.120544761419296265e-02,-2.412509918212890625e-02,-4.200013354420661926e-03,3.297845646739006042e-02,-3.055618889629840851e-02,1.416939124464988708e-02,-8.216923102736473083e-03,2.099967747926712036e-02,5.574710667133331299e-03
-9.522499516606330872e-03,-3.176884725689888000e-02,2.469423413276672363e-02,-1.012824103236198425e-02,-3.403423354029655457e-03,-1.140911132097244263e-03,9.962696582078933716e-03,-1.035982184112071991e-02,3.238336369395256042e-02,1.346854120492935181e-02
-9.087704122066497803e-03,-1.924923807382583618e-02,-1.675866730511188507e-02,-2.605284005403518677e-02,4.600699990987777710e-03,2.613350749015808105e-02,-1.147617027163505554e-02,-5.862994119524955750e-03,-1.550416462123394012e-02,5.161892622709274292e-03
3.185108304023742676e-03,2.830848097801208496e-02,2.513583749532699585e-02,4.668138921260833740e-03,-1.612034812569618225e-02,2.711132541298866272e-02,6.616454571485519409e-03,-2.239074185490608215e-02,-8.878959342837333679e-03,-2.218495681881904602e-02
5.073029547929763794e-03,-2.897907048463821411e-02,2.948183566331863403e-03,2.522527799010276794e-02,1.293769851326942444e-02,-2.026870101690292358e-02,-3.495903685688972473e-03,2.760011330246925354e-02,-4.120068624615669250e-03,9.751729667186737061e-03
6.736196577548980713e-03,-1.410036534070968628e-02,-2.021066471934318542e-02,-2.074535749852657318e-02,-1.723434031009674072e-02,-1.022356189787387848e-02,5.762200802564620972e-03,1.152640953660011292e-02,-1.712071523070335388e-02,-3.302864357829093933e-02
5.523972213268280029e-03,-2.878164686262607574e-02,1.183133199810981750e-02,-1.334723830223083496e-02,-2.448131516575813293e-02,-1.481309905648231506e-02,-1.884087920188903809e-03,-1.990334689617156982e-02,-2.762926928699016571e-02,9.163338690996170044e-03
-1.904851198196411133e-02,2.059902250766754150e-02,-2.475933358073234558e-02,1.688129827380180359e-02,9.259134531021118164e-03,9.163863956928253174e-03,2.539325878024101257e-02,4.009801894426345825e-03,7.007136940956115723e-03,3.244644030928611755e-02
8.108336478471755981e-03,8.082911372184753418e-04,-1.467519626021385193e-02,1.208297908306121826e-04,1.130981743335723877e-02,2.090479433536529541e-02,8.441213518381118774e-03,-3.269758075475692749e-03,2.916373685002326965e-02,1.585464924573898315e-03
7.945425808429718018e-03,-2.317066863179206848e-02,6.784576922655105591e-03,3.225242719054222107e-02,-3.238687291741371155e-02,-1.275569759309291840e-02,1.761219277977943420e-02,-4.586299881339073181e-03,-1.054896973073482513e-02,1.479409635066986084e-03
1.082548126578330994e-02,1.580267399549484253e-02,-3.160528093576431274e-02,-1.294826529920101166e-02,-9.677523747086524963e-03,2.482013031840324402e-02,2.441558986902236938e-03,1.932971179485321045e-02,1.715695112943649292e-02,-7.640600204467773438e-03
-3.283159434795379639e-02,-9.229613468050956726e-03,1.976406201720237732e-02,2.967439591884613037e-03,-1.958418264985084534e-02,2.807569503784179688e-02,3.076005354523658752e-02,-9.456463158130645752e-03,-2.951144613325595856e-02,7.967103272676467896e-03
-1.843012869358062744e-04,-7.043236866593360901e-03,2.065571025013923645e-02,6.072081625461578369e-03,1.320190727710723877e-03,-3.081007115542888641e-02,-1.415812410414218903e-02,2.757899090647697449e-02,-1.717581786215305328e-02,-2.115461975336074829e-02
-2.355691604316234589e-02,5.139630287885665894e-03,3.171039000153541565e-02,3.000953420996665955e-02,-2.112757414579391479e-03,-1.175427436828613281e-02,4.440985620021820068e-03,-6.898701190948486328e-03,2.772201225161552429e-02,2.504776045680046082e-02
1.089224591851234436e-02,1.346496492624282837e-02,1.000508293509483337e-02,-5.871849134564399719e-03,3.051860257983207703e-02,2.541582286357879639e-02,-8.915144950151443481e-03,7.415242493152618408e-03,1.529353857040405273e-02,-1.346823386847972870e-02
8.348334580659866333e-03,1.457704231142997742e-02,2.719787135720252991e-02,-2.991209365427494049e-02,2.271310240030288696e-02,9.161632508039474487e-03,3.091668710112571716e-02,5.690522491931915283e-03,3.254779055714607239e-02,-1.002504304051399231e-02
-3.675833344459533691e-03,1.987591013312339783e-02,3.278150781989097595e-02,-2.045505121350288391e-02,-1.461133360862731934e-04,2.693903073668479919e-02,-2.835256420075893402e-02,2.162531763315200806e-02,-2.888615429401397705e-02,-9.067671373486518860e-03
1.251608878374099731e-02,2.569712698459625244e-03,2.133201807737350464e-02,-2.636365778744220734e-02,6.626769900321960449e-03,5.862105637788772583e-03,-2.192586101591587067e-02,-2.006441354751586914e-04,1.219513267278671265e-02,3.135689720511436462e-02
-2.716615051031112671e-02,6.099801510572433472e-03,-5.435490980744361877e-03,-3.299956023693084717e-02,2.603344246745109558e-02,2.878374978899955750e-02,2.889312803745269775e-03,2.818160876631736755e-02,2.778431028127670288e-02,2.053974568843841553e-02
-7.238112390041351318e-03,1.828354969620704651e-02,4.710368812084197998e-04,1.197193935513496399e-02,-9.318910539150238037e-03,-2.811090648174285889e-02,9.379852563142776489e-03,-3.239893168210983276e-02,1.123634725809097290e-02,2.844136208295822144e-02
4.319895058870315552e-03,1.294797286391258240e-02,-7.813459262251853943e-03,-4.572303965687751770e-03,-1.003182679414749146e-02,1.340679824352264404e-02,-1.574531942605972290e-02,-2.399434521794319153e-02,2.133910357952117920e-02,2.807081490755081177e-02
1.203153282403945923e-02,-1.018379628658294678e-02,3.183288499712944031e-02,-1.689177006483078003e-02,8.939906954765319824e-03,3.310292586684226990e-02,-2.999344840645790100e-02,-2.668541669845581055e-02,-2.257662266492843628e-02,-1.776085235178470612e-02
1.131366938352584839e-03,2.127799764275550842e-02,1.442321762442588806e-02,-1.947084441781044006e-02,4.119459539651870728e-03,1.212494075298309326e-02,-9.307414293289184570e-03,-1.842036470770835876e-02,2.600564062595367432e-02,1.380409672856330872e-02
-2.777308970689773560e-02,-2.403495833277702332e-02,-2.568420022726058960e-02,1.722939312458038330e-03,3.304160758852958679e-02,-2.077810093760490417e-02,-2.646847441792488098e-02,1.082295924425125122e-02,-8.600432425737380981e-03,1.457635313272476196e-02
1.097840070724487305e-02,-2.326115779578685760e-02,-1.908298581838607788e-02,1.494343951344490051e-02,1.760698109865188599e-02,2.380849048495292664e-02,-5.306173115968704224e-03,-5.684122443199157715e-04,1.404370740056037903e-02,-3.155309706926345825e-03
7.337789982557296753e-03,-1.732124201953411102e-02,2.401760965585708618e-02,1.689706370234489441e-02,2.105731889605522156e-02,4.006065428256988525e-03,-2.237554825842380524e-02,-5.051251500844955444e-03,1.637552306056022644e-02,-8.585706353187561035e-03
1.695149764418601990e-02,-5.261132493615150452e-03,2.289642021059989929e-02,2.577352151274681091e-02,-2.616193518042564392e-02,1.908965781331062317e-02,2.553793415427207947e-02,2.270376309752464294e-02,-1.309923827648162842e-04,-5.730614066123962402e-05
-1.408371143043041229e-02,3.569919615983963013e-03,-2.225341275334358215e-03,-2.938278019428253174e-02,-2.754772268235683441e-02,1.336903497576713562e-02,1.869997754693031311e-02,-1.716283708810806274e-02,2.021599560976028442e-02,-1.094695180654525757e-02
1.648959144949913025e-02,-2.763529866933822632e-02,9.701363742351531982e-03,5.789473652839660645e-05,1.485824957489967346e-02,3.126383200287818909e-02,5.755312740802764893e-03,2.406049892306327820e-02,2.066300064325332642e-02,-7.601525634527206421e-03
-1.513034291565418243e-02,8.089788258075714111e-03,-1.867875456809997559e-02,1.894401386380195618e-02,-2.575047314167022705e-02,-9.328756481409072876e-03,-2.909674867987632751e-02,2.781096845865249634e-02,-3.268939256668090820e-02,4.430409520864486694e-03
